{"learner":{"attributes":{"scikit_learn":"{\"_estimator_type\": \"classifier\"}"},"feature_names":["RSI","Return_1d","Return_3d","Trend_Distance","DXY","DXY_Momentum","US10Y","US10Y_Change","VIX","VIX_Spike"],"feature_types":["float","float","float","float","float","float","float","float","float","float"],"gradient_booster":{"model":{"cats":{"enc":[],"feature_segments":[],"sorted_idx":[]},"gbtree_model_param":{"num_parallel_tree":"1","num_trees":"200"},"iteration_indptr":[0,1,2,3,4,5,6,7,8,9,10,11,12,13,14,15,16,17,18,19,20,21,22,23,24,25,26,27,28,29,30,31,32,33,34,35,36,37,38,39,40,41,42,43,44,45,46,47,48,49,50,51,52,53,54,55,56,57,58,59,60,61,62,63,64,65,66,67,68,69,70,71,72,73,74,75,76,77,78,79,80,81,82,83,84,85,86,87,88,89,90,91,92,93,94,95,96,97,98,99,100,101,102,103,104,105,106,107,108,109,110,111,112,113,114,115,116,117,118,119,120,121,122,123,124,125,126,127,128,129,130,131,132,133,134,135,136,137,138,139,140,141,142,143,144,145,146,147,148,149,150,151,152,153,154,155,156,157,158,159,160,161,162,163,164,165,166,167,168,169,170,171,172,173,174,175,176,177,178,179,180,181,182,183,184,185,186,187,188,189,190,191,192,193,194,195,196,197,198,199,200],"tree_info":[0,0,0,0,0,0,0,0,0,0,0,0,0,0,0,0,0,0,0,0,0,0,0,0,0,0,0,0,0,0,0,0,0,0,0,0,0,0,0,0,0,0,0,0,0,0,0,0,0,0,0,0,0,0,0,0,0,0,0,0,0,0,0,0,0,0,0,0,0,0,0,0,0,0,0,0,0,0,0,0,0,0,0,0,0,0,0,0,0,0,0,0,0,0,0,0,0,0,0,0,0,0,0,0,0,0,0,0,0,0,0,0,0,0,0,0,0,0,0,0,0,0,0,0,0,0,0,0,0,0,0,0,0,0,0,0,0,0,0,0,0,0,0,0,0,0,0,0,0,0,0,0,0,0,0,0,0,0,0,0,0,0,0,0,0,0,0,0,0,0,0,0,0,0,0,0,0,0,0,0,0,0,0,0,0,0,0,0,0,0,0,0,0,0,0,0,0,0,0,0],"trees":[{"base_weights":[5.54553E-8,1.6095605E-1,-1.1941947E-1,3.0057055E-1,-5.768468E-2,-4.9162316E-1,-6.2302943E-2,3.6598328E-1,-2.155939E-1,3.4246024E-1,-2.6754183E-1,-6.377536E-1,9.091803E-1,3.7459563E-2,-2.622703E-1,2.7764577E-1,1.042546E0,-8.775642E-1,2.479973E-1,-5.788954E-1,5.223087E-1,-5.917042E-1,1.6679908E-1,-2.8085315E-1,-1.1375282E0,7.665895E-3,5.981889E-2,-2.6551938E-1,1.3776232E-1,-1.1097455E0,1.3452302E-3,5.936693E-3,2.982964E-2,-3.747422E-3,5.9739858E-2,2.9936155E-2,-6.716012E-2,3.26687E-2,-3.311409E-2,2.336518E-2,-6.176498E-2,-1.722352E-2,3.2810047E-2,7.959786E-3,-3.946736E-2,-5.8316786E-2,1.7710077E-2,8.540187E-4,-4.1049823E-2,-8.045294E-2,-3.5409868E-2,-8.60796E-3,-7.100456E-2,3.1872205E-2,2.380602E-3,-6.445467E-2,2.336518E-2,1.0964367E-2,-2.761739E-2],"categories":[],"categories_nodes":[],"categories_segments":[],"categories_sizes":[],"default_left":[0,0,0,0,0,0,0,0,0,0,0,0,0,0,0,0,0,0,0,0,0,0,0,0,0,0,0,0,0,0,0,0,0,0,0,0,0,0,0,0,0,0,0,0,0,0,0,0,0,0,0,0,0,0,0,0,0,0,0],"id":0,"left_children":[1,3,5,7,9,11,13,15,17,19,21,23,25,27,29,31,33,35,37,39,41,43,45,47,49,-1,-1,51,53,55,57,-1,-1,-1,-1,-1,-1,-1,-1,-1,-1,-1,-1,-1,-1,-1,-1,-1,-1,-1,-1,-1,-1,-1,-1,-1,-1,-1,-1],"loss_changes":[9.563906E0,6.486523E0,6.0417967E0,4.451277E0,7.0974035E0,8.329024E0,4.972881E0,6.601815E0,4.8806286E0,5.1310406E0,7.883135E0,5.8999176E0,6.8237233E-1,5.107195E0,1.8528831E1,5.167458E0,2.2934408E0,5.2577295E0,4.0179887E0,4.171257E0,3.1166015E0,4.8569202E0,6.5112247E0,3.5012152E0,1.7348614E0,0E0,0E0,4.265581E0,5.646076E0,6.167904E0,7.8747807E0,0E0,0E0,0E0,0E0,0E0,0E0,0E0,0E0,0E0,0E0,0E0,0E0,0E0,0E0,0E0,0E0,0E0,0E0,0E0,0E0,0E0,0E0,0E0,0E0,0E0,0E0,0E0,0E0],"parents":[2147483647,0,0,1,1,2,2,3,3,4,4,5,5,6,6,7,7,8,8,9,9,10,10,11,11,12,12,13,13,14,14,15,15,16,16,17,17,18,18,19,19,20,20,21,21,22,22,23,23,24,24,27,27,28,28,29,29,30,30],"right_children":[2,4,6,8,10,12,14,16,18,20,22,24,26,28,30,32,34,36,38,40,42,44,46,48,50,-1,-1,52,54,56,58,-1,-1,-1,-1,-1,-1,-1,-1,-1,-1,-1,-1,-1,-1,-1,-1,-1,-1,-1,-1,-1,-1,-1,-1,-1,-1,-1,-1],"split_conditions":[-6.74433E-4,9.872E1,4.7143913E-4,3.3590007E0,-7.815031E-3,4.137E0,2.838E0,2.327E1,-7.815031E-3,1.264E1,-1.9995205E-3,9.827E1,4.164471E1,-1.3058824E-3,9.679E1,4.931727E-3,3.329219E1,-8.000004E-2,-2.256618E-3,-3.4698124E1,-8.9000225E-2,-3.043822E1,-3.2719994E0,1.863E1,1.378E1,7.665895E-3,5.981889E-2,-1.791331E-3,-5.202447E0,5.566E0,9.168544E-3,5.936693E-3,2.982964E-2,-3.747422E-3,5.9739858E-2,2.9936155E-2,-6.716012E-2,3.26687E-2,-3.311409E-2,2.336518E-2,-6.176498E-2,-1.722352E-2,3.2810047E-2,7.959786E-3,-3.946736E-2,-5.8316786E-2,1.7710077E-2,8.540187E-4,-4.1049823E-2,-8.045294E-2,-3.5409868E-2,-8.60796E-3,-7.100456E-2,3.1872205E-2,2.380602E-3,-6.445467E-2,2.336518E-2,1.0964367E-2,-2.761739E-2],"split_indices":[1,4,1,9,1,6,6,8,1,8,2,4,0,2,4,5,0,7,1,3,7,3,9,8,8,0,0,2,3,9,1,0,0,0,0,0,0,0,0,0,0,0,0,0,0,0,0,0,0,0,0,0,0,0,0,0,0,0,0],"split_type":[0,0,0,0,0,0,0,0,0,0,0,0,0,0,0,0,0,0,0,0,0,0,0,0,0,0,0,0,0,0,0,0,0,0,0,0,0,0,0,0,0,0,0,0,0,0,0,0,0,0,0,0,0,0,0,0,0,0,0],"sum_hessian":[4.9556836E2,2.1092784E2,2.846405E2,1.2849913E2,8.24287E1,3.685634E1,2.4778418E2,1.1430446E2,1.4194672E1,2.8140314E1,5.428839E1,3.386799E1,2.9883518E0,1.6585353E2,8.193065E1,1.0235105E2,1.1953407E1,5.4786453E0,8.716026E0,4.2334986E0,2.3906815E1,3.0879637E1,2.3408756E1,2.0669434E1,1.3198554E1,1.2451466E0,1.7432053E0,4.084081E1,1.2501272E2,1.8677198E1,6.325345E1,6.923015E1,3.31209E1,1.4941759E0,1.0459231E1,1.2451466E0,4.2334986E0,6.2257333E0,2.4902933E0,1.7432053E0,2.4902933E0,2.9883518E0,2.0918463E1,6.4747624E0,2.4404873E1,2.2412639E0,2.1167492E1,1.3945642E1,6.7237916E0,4.9805865E0,8.217968E0,3.8848576E1,1.9922346E0,1.817914E1,1.0683358E2,1.6933994E1,1.7432053E0,4.5821396E1,1.7432053E1],"tree_param":{"num_deleted":"0","num_feature":"10","num_nodes":"59","size_leaf_vector":"1"}},{"base_weights":[-4.4655454E-4,1.5285441E-1,-1.14082426E-1,2.8629926E-1,-5.5915885E-2,-1.3155256E-1,1.0108435E0,1.836694E-1,6.0809773E-1,3.2504687E-1,-2.553103E-1,-1.9946236E-2,-3.5235685E-1,6.26375E-2,1.5740553E-2,2.5658056E-1,-3.4647793E-1,-5.9423256E-1,8.213267E-1,-7.588214E-1,4.6643183E-1,-5.6223977E-1,1.5693317E-1,-8.6356096E-2,4.3552735E-1,-9.390463E-1,-1.542045E-1,7.522566E-3,5.0589956E-2,-4.7215976E-2,1.75933E-2,2.8850714E-2,-5.5184443E-2,-1.5598257E-2,5.1717192E-2,7.315751E-3,-6.34406E-2,-5.8221347E-3,3.5142742E-2,-4.574172E-2,-7.6190266E-3,-5.618906E-2,1.6884051E-2,-2.859441E-2,-1.8052951E-3,3.5434324E-2,-2.0975074E-2,-5.3496636E-2,2.2646256E-2,6.216938E-2,-1.0585254E-2],"categories":[],"categories_nodes":[],"categories_segments":[],"categories_sizes":[],"default_left":[0,0,0,0,0,0,0,0,0,0,0,0,0,0,0,0,0,0,0,0,0,0,0,0,0,0,0,0,0,0,0,0,0,0,0,0,0,0,0,0,0,0,0,0,0,0,0,0,0,0,0],"id":1,"left_children":[1,3,5,7,9,11,13,15,17,19,21,23,25,-1,-1,27,29,31,33,35,37,39,41,43,45,47,49,-1,-1,-1,-1,-1,-1,-1,-1,-1,-1,-1,-1,-1,-1,-1,-1,-1,-1,-1,-1,-1,-1,-1,-1],"loss_changes":[8.666064E0,5.915867E0,5.7475233E0,4.160468E0,6.4194484E0,6.947409E0,3.6062527E-1,3.9353306E0,8.396273E0,4.8132143E0,7.0874662E0,5.739816E0,1.0863284E1,0E0,0E0,6.905345E0,5.532839E0,3.7556236E0,6.7490177E0,1.911396E0,3.7145042E0,4.4744883E0,6.0254345E0,4.0138526E0,5.93871E0,4.8043823E0,6.047691E0,0E0,0E0,0E0,0E0,0E0,0E0,0E0,0E0,0E0,0E0,0E0,0E0,0E0,0E0,0E0,0E0,0E0,0E0,0E0,0E0,0E0,0E0,0E0,0E0],"parents":[2147483647,0,0,1,1,2,2,3,3,4,4,5,5,6,6,7,7,8,8,9,9,10,10,11,11,12,12,15,15,16,16,17,17,18,18,19,19,20,20,21,21,22,22,23,23,24,24,25,25,26,26],"right_children":[2,4,6,8,10,12,14,16,18,20,22,24,26,-1,-1,28,30,32,34,36,38,40,42,44,46,48,50,-1,-1,-1,-1,-1,-1,-1,-1,-1,-1,-1,-1,-1,-1,-1,-1,-1,-1,-1,-1,-1,-1,-1,-1],"split_conditions":[-6.74433E-4,9.872E1,4.662E0,9.716E1,-7.815031E-3,2.838E0,7.993691E1,3.2615001E0,1.571E0,9.912E1,-1.9995205E-3,1.246488E-2,9.679E1,6.26375E-2,1.5740553E-2,2.327E1,5.566E0,9.747E1,-1.990589E-2,1.8999815E-2,1.394E1,-4.1131317E-3,-3.2719994E0,-1.2069619E-2,1.700008E-2,5.566E0,-2.030656E-2,7.522566E-3,5.0589956E-2,-4.7215976E-2,1.75933E-2,2.8850714E-2,-5.5184443E-2,-1.5598257E-2,5.1717192E-2,7.315751E-3,-6.34406E-2,-5.8221347E-3,3.5142742E-2,-4.574172E-2,-7.6190266E-3,-5.618906E-2,1.6884051E-2,-2.859441E-2,-1.8052951E-3,3.5434324E-2,-2.0975074E-2,-5.3496636E-2,2.2646256E-2,6.216938E-2,-1.0585254E-2],"split_indices":[1,4,6,4,1,6,0,9,6,4,2,1,4,0,0,8,9,4,2,7,8,1,9,5,7,9,2,0,0,0,0,0,0,0,0,0,0,0,0,0,0,0,0,0,0,0,0,0,0,0,0],"split_type":[0,0,0,0,0,0,0,0,0,0,0,0,0,0,0,0,0,0,0,0,0,0,0,0,0,0,0,0,0,0,0,0,0,0,0,0,0,0,0,0,0,0,0,0,0,0,0,0,0,0,0],"sum_hessian":[4.954629E2,2.1077322E2,2.8468967E2,1.2835686E2,8.241637E1,2.812056E2,3.4840734E0,9.851018E1,2.9846682E1,2.809944E1,5.431693E1,1.8751552E2,9.3690056E1,1.9919324E0,1.4921411E0,8.70537E1,1.1456472E1,4.226721E0,2.561996E1,2.7385373E0,2.5360903E1,3.0926918E1,2.339001E1,1.6436139E2,2.3154139E1,2.2710321E1,7.097974E1,7.737901E1,9.674689E0,5.9826174E0,5.4738545E0,1.2410113E0,2.9857094E0,3.9801729E0,2.163979E1,1.243919E0,1.4946182E0,7.4647865E0,1.7896116E1,1.596255E1,1.4964368E1,2.2475166E0,2.1142494E1,1.4441598E1,1.4991978E2,1.7677727E1,5.4764113E0,2.0969889E1,1.7404325E0,1.9898996E0,6.898984E1],"tree_param":{"num_deleted":"0","num_feature":"10","num_nodes":"51","size_leaf_vector":"1"}},{"base_weights":[-4.0176915E-4,1.4500181E-1,-1.0806075E-1,2.7267137E-1,-5.4554023E-2,-4.5895076E-1,-5.416678E-2,1.4619543E-1,5.1890844E-1,3.084077E-1,-2.4417074E-1,-5.9832186E-1,8.8015836E-1,3.685628E-1,-9.815506E-2,-5.685193E-2,4.3016085E-1,7.1425486E-1,-5.184255E-1,-7.3525053E-1,4.4510305E-1,-5.352489E-1,1.4763553E-1,-2.5575823E-1,-1.0784063E0,6.74505E-3,5.845451E-2,-2.2493315E-1,1.0766985E0,-4.255625E-1,-2.5995572E-3,8.343472E-3,-3.859807E-2,3.0623028E-2,-4.8535117E-3,4.51527E-2,-1.5410108E-3,-6.485581E-2,-5.3451504E-3,7.11506E-3,-6.144575E-2,-5.5635343E-3,3.357497E-2,8.763948E-3,-3.6143996E-2,-5.4202944E-2,1.609801E-2,1.5680535E-3,-3.8877435E-2,-5.978765E-2,-2.4086204E-3,-4.3500464E-2,1.5556431E-2,6.376165E-2,-1.3016726E-2,-5.557422E-2,-8.449751E-3,-3.4100134E-3,1.8189447E-2],"categories":[],"categories_nodes":[],"categories_segments":[],"categories_sizes":[],"default_left":[0,0,0,0,0,0,0,0,0,0,0,0,0,0,0,0,0,0,0,0,0,0,0,0,0,0,0,0,0,0,0,0,0,0,0,0,0,0,0,0,0,0,0,0,0,0,0,0,0,0,0,0,0,0,0,0,0,0,0],"id":2,"left_children":[1,3,5,7,9,11,13,15,17,19,21,23,25,27,29,31,33,35,37,39,41,43,45,47,49,-1,-1,51,53,55,57,-1,-1,-1,-1,-1,-1,-1,-1,-1,-1,-1,-1,-1,-1,-1,-1,-1,-1,-1,-1,-1,-1,-1,-1,-1,-1,-1,-1],"loss_changes":[7.784689E0,5.404923E0,5.378588E0,3.9474173E0,5.8135715E0,7.6017594E0,4.6630816E0,5.025811E0,9.174144E0,4.4719725E0,6.388519E0,5.468938E0,6.989229E-1,1.0186737E1,7.074482E0,8.361647E0,3.5465856E0,5.2300014E0,2.2533014E0,1.7958057E0,3.3888516E0,4.387314E0,5.5806684E0,3.2748137E0,1.6633263E0,0E0,0E0,5.0082154E0,3.2417612E0,8.802912E0,4.2567916E0,0E0,0E0,0E0,0E0,0E0,0E0,0E0,0E0,0E0,0E0,0E0,0E0,0E0,0E0,0E0,0E0,0E0,0E0,0E0,0E0,0E0,0E0,0E0,0E0,0E0,0E0,0E0,0E0],"parents":[2147483647,0,0,1,1,2,2,3,3,4,4,5,5,6,6,7,7,8,8,9,9,10,10,11,11,12,12,13,13,14,14,15,15,16,16,17,17,18,18,19,19,20,20,21,21,22,22,23,23,24,24,27,27,28,28,29,29,30,30],"right_children":[2,4,6,8,10,12,14,16,18,20,22,24,26,28,30,32,34,36,38,40,42,44,46,48,50,-1,-1,52,54,56,58,-1,-1,-1,-1,-1,-1,-1,-1,-1,-1,-1,-1,-1,-1,-1,-1,-1,-1,-1,-1,-1,-1,-1,-1,-1,-1,-1,-1],"split_conditions":[-6.74433E-4,9.872E1,4.7143913E-4,4.931727E-3,-7.815031E-3,4.137E0,1.142E1,5.300481E1,9.399986E-2,9.912E1,-1.9995205E-3,9.827E1,-1.5237859E-4,2.346E0,1.348E1,4.7955105E1,2.1763577E1,6.0414055E1,1.3E1,1.8999815E-2,1.394E1,-3.043822E1,-3.2719994E0,1.863E1,3.9138268E1,6.74505E-3,5.845451E-2,4.3194448E-3,2.563E0,9.522E1,3.751E0,8.343472E-3,-3.859807E-2,3.0623028E-2,-4.8535117E-3,4.51527E-2,-1.5410108E-3,-6.485581E-2,-5.3451504E-3,7.11506E-3,-6.144575E-2,-5.5635343E-3,3.357497E-2,8.763948E-3,-3.6143996E-2,-5.4202944E-2,1.609801E-2,1.5680535E-3,-3.8877435E-2,-5.978765E-2,-2.4086204E-3,-4.3500464E-2,1.5556431E-2,6.376165E-2,-1.3016726E-2,-5.557422E-2,-8.449751E-3,-3.4100134E-3,1.8189447E-2],"split_indices":[1,4,1,5,1,6,8,0,7,4,2,4,1,6,8,0,3,0,8,7,8,3,9,8,3,0,0,2,6,4,6,0,0,0,0,0,0,0,0,0,0,0,0,0,0,0,0,0,0,0,0,0,0,0,0,0,0,0,0],"split_type":[0,0,0,0,0,0,0,0,0,0,0,0,0,0,0,0,0,0,0,0,0,0,0,0,0,0,0,0,0,0,0,0,0,0,0,0,0,0,0,0,0,0,0,0,0,0,0,0,0,0,0,0,0,0,0,0,0,0,0],"sum_hessian":[4.952961E2,2.1056346E2,2.8473264E2,1.2818703E2,8.2376434E1,3.6909355E1,2.4782329E2,8.574112E1,4.244591E1,2.8052412E1,5.4324024E1,3.3931087E1,2.9782686E0,2.266197E1,2.2516132E2,5.045992E1,3.52812E1,3.598148E1,6.464431E0,2.7416182E0,2.5310795E1,3.0958462E1,2.3365562E1,2.0696127E1,1.3234961E1,1.24189E0,1.7363786E0,1.2700178E1,9.961792E0,5.0088066E1,1.7507324E2,3.901939E1,1.144053E1,2.6096281E1,9.184918E0,2.8538025E1,7.443455E0,1.4910487E0,4.973382E0,1.2432779E0,1.4983402E0,7.4675784E0,1.7843216E1,6.4811697E0,2.4477293E1,2.2499406E0,2.1115623E1,1.3956404E1,6.739723E0,1.1737377E1,1.4975834E0,5.481267E0,7.218911E0,8.714072E0,1.24772E0,1.2728048E1,3.7360016E1,1.4917737E2,2.589588E1],"tree_param":{"num_deleted":"0","num_feature":"10","num_nodes":"59","size_leaf_vector":"1"}},{"base_weights":[-7.330063E-4,-4.1392222E-1,3.5270423E-2,-5.878213E-1,6.82325E-2,1.6736569E-1,-5.4480765E-2,-9.720063E-1,-1.22569725E-1,5.2175444E-1,-5.708779E-1,2.1761815E-1,-3.220429E-1,-9.484257E-2,4.129717E-1,-6.099714E-1,-7.190501E-2,4.39103E-1,-4.882818E-1,-2.0489416E-1,1.0113935E0,2.3118591E-2,-6.088529E-2,1.2766618E-1,5.459561E-1,-1.0833724E0,1.6058058E-1,1.9455252E-2,-4.1042975E-1,-3.7409477E-2,5.668699E-1,2.4988776E-2,-5.784259E-2,-1.4535253E-2,3.9346486E-2,2.918593E-2,-3.6423594E-2,1.6075224E-2,-3.4886047E-2,1.610834E-2,6.238951E-2,2.6491193E-2,-8.807687E-4,4.6621237E-2,5.7446375E-3,-6.770023E-2,-2.7347456E-3,4.114563E-2,-2.0282218E-2,-1.2298941E-2,6.3316296E-3,1.6834227E-2,-2.9147951E-2,4.400527E-2,-2.030287E-3],"categories":[],"categories_nodes":[],"categories_segments":[],"categories_sizes":[],"default_left":[0,0,0,0,0,0,0,0,0,0,0,0,0,0,0,0,0,0,0,0,0,0,0,0,0,0,0,0,0,0,0,0,0,0,0,0,0,0,0,0,0,0,0,0,0,0,0,0,0,0,0,0,0,0,0],"id":3,"left_children":[1,3,5,7,9,11,13,15,17,19,21,23,25,27,29,31,-1,33,35,37,39,-1,-1,41,43,45,47,49,51,-1,53,-1,-1,-1,-1,-1,-1,-1,-1,-1,-1,-1,-1,-1,-1,-1,-1,-1,-1,-1,-1,-1,-1,-1,-1],"loss_changes":[7.393868E0,3.3803077E0,5.4296317E0,5.1326084E0,3.6182618E0,4.625268E0,5.189765E0,1.8139915E0,3.1791103E0,2.7771947E0,4.0600386E0,4.90881E0,6.6592927E0,9.101728E0,4.3349085E0,7.0797787E0,0E0,1.8072253E0,2.7979126E0,1.1943964E0,3.2855272E-1,0E0,0E0,7.8162804E0,5.880905E0,1.8682795E0,4.7116303E0,5.3234754E0,8.842246E0,0E0,3.8209186E0,0E0,0E0,0E0,0E0,0E0,0E0,0E0,0E0,0E0,0E0,0E0,0E0,0E0,0E0,0E0,0E0,0E0,0E0,0E0,0E0,0E0,0E0,0E0,0E0],"parents":[2147483647,0,0,1,1,2,2,3,3,4,4,5,5,6,6,7,7,8,8,9,9,10,10,11,11,12,12,13,13,14,14,15,15,17,17,18,18,19,19,20,20,23,23,24,24,25,25,26,26,27,27,28,28,30,30],"right_children":[2,4,6,8,10,12,14,16,18,20,22,24,26,28,30,32,-1,34,36,38,40,-1,-1,42,44,46,48,50,52,-1,54,-1,-1,-1,-1,-1,-1,-1,-1,-1,-1,-1,-1,-1,-1,-1,-1,-1,-1,-1,-1,-1,-1,-1,-1],"split_conditions":[-1.1400002E-1,3.71E0,-1.2153253E-3,1.4475E0,4.206E0,3.3590007E0,4.206E0,2.7907879E1,4.346999E0,1.5059543E-2,3.4951803E-3,2.153E1,4.4690003E0,2.848E0,-6.9000006E-2,-4.183241E-3,-7.190501E-2,5.46612E0,9.6E1,-7.2949976E-1,1.0319E2,2.3118591E-2,-6.088529E-2,-1.9000053E-2,-6.9293845E-3,-1.7548934E0,4.1564583E1,-1.3058824E-3,-4.700017E-2,-3.7409477E-2,6.738694E-3,2.4988776E-2,-5.784259E-2,-1.4535253E-2,3.9346486E-2,2.918593E-2,-3.6423594E-2,1.6075224E-2,-3.4886047E-2,1.610834E-2,6.238951E-2,2.6491193E-2,-8.807687E-4,4.6621237E-2,5.7446375E-3,-6.770023E-2,-2.7347456E-3,4.114563E-2,-2.0282218E-2,-1.2298941E-2,6.3316296E-3,1.6834227E-2,-2.9147951E-2,4.400527E-2,-2.030287E-3],"split_indices":[7,6,1,9,6,9,6,3,9,2,1,8,9,6,7,5,0,3,4,9,4,0,0,7,1,3,0,2,7,0,1,0,0,0,0,0,0,0,0,0,0,0,0,0,0,0,0,0,0,0,0,0,0,0,0],"split_type":[0,0,0,0,0,0,0,0,0,0,0,0,0,0,0,0,0,0,0,0,0,0,0,0,0,0,0,0,0,0,0,0,0,0,0,0,0,0,0,0,0,0,0,0,0,0,0,0,0,0,0,0,0,0,0],"sum_hessian":[4.950443E2,3.8837177E1,4.5620715E2,2.8381607E1,1.045557E1,1.8421535E2,2.719918E2,1.4948536E1,1.3433071E1,6.2231545E0,4.232416E0,1.675651E2,1.665024E1,2.5110725E2,2.0884542E1,9.712845E0,5.235691E0,5.218163E0,8.214908E0,2.7393558E0,3.4837987E0,1.7392654E0,2.4931505E0,1.326209E2,3.4944206E1,5.976953E0,1.0673287E1,1.8503172E2,6.607553E1,1.9921553E0,1.8892387E1,3.2348065E0,6.4780383E0,1.7372661E0,3.4808972E0,1.2419012E0,6.9730067E0,1.4926533E0,1.2467024E0,1.4931793E0,1.9906194E0,3.449301E1,9.812788E1,1.7811907E1,1.71323E1,4.4816337E0,1.4953196E0,4.7102365E0,5.9630504E0,5.2849716E1,1.32182E2,1.22175665E1,5.3857967E1,1.2168894E1,6.723494E0],"tree_param":{"num_deleted":"0","num_feature":"10","num_nodes":"55","size_leaf_vector":"1"}},{"base_weights":[-7.822855E-4,-3.947289E-1,3.3567168E-2,-5.609878E-1,6.6843554E-2,2.8765106E-1,-9.016415E-3,-9.2886084E-1,-1.15182996E-1,5.048712E-1,-5.492479E-1,4.169521E-1,-4.572193E-1,1.148589E-1,-1.7808168E-1,-5.820529E-1,-1.3754474E0,4.2175117E-1,-4.6415287E-1,-1.9971955E-1,9.810038E-1,2.2408998E-2,-5.8619257E-2,-1.5745753E-1,7.043656E-1,3.4438923E-1,-9.2352945E-1,3.394454E-1,1.5337573E-2,-1.1388807E-1,-7.9693544E-1,2.4065001E-2,-5.523565E-2,-7.830933E-2,-2.8164102E-2,-1.4063226E-2,3.7909906E-2,2.8416911E-2,-3.4775447E-2,1.5604712E-2,-3.3905804E-2,1.5636725E-2,6.052509E-2,7.5679957E-3,-3.8683113E-2,6.751907E-3,5.135802E-2,5.7402175E-2,-2.9039308E-2,-6.344091E-2,2.2870821E-3,2.5363807E-2,2.1904306E-3,-3.2022E-2,3.7275762E-3,-3.1105733E-2,-1.173794E-3,-4.6721492E-2,-2.9207866E-3],"categories":[],"categories_nodes":[],"categories_segments":[],"categories_sizes":[],"default_left":[0,0,0,0,0,0,0,0,0,0,0,0,0,0,0,0,0,0,0,0,0,0,0,0,0,0,0,0,0,0,0,0,0,0,0,0,0,0,0,0,0,0,0,0,0,0,0,0,0,0,0,0,0,0,0,0,0,0,0],"id":4,"left_children":[1,3,5,7,9,11,13,15,17,19,21,23,25,27,29,31,33,35,37,39,41,-1,-1,43,45,47,49,51,53,55,57,-1,-1,-1,-1,-1,-1,-1,-1,-1,-1,-1,-1,-1,-1,-1,-1,-1,-1,-1,-1,-1,-1,-1,-1,-1,-1,-1,-1],"loss_changes":[6.7230387E0,3.0952845E0,4.947304E0,4.7146816E0,3.36598E0,6.5115213E0,8.238007E0,1.672328E0,2.9002857E0,2.6148496E0,3.7791166E0,9.429517E0,4.124931E0,5.069866E0,6.516376E0,6.4900994E0,8.532524E-2,1.6820027E0,2.5987055E0,1.1269996E0,3.0727386E-1,0E0,0E0,3.8547308E0,6.808632E0,3.9932282E0,2.3038592E0,3.4348154E0,6.1980753E0,6.962978E0,1.5156479E0,0E0,0E0,0E0,0E0,0E0,0E0,0E0,0E0,0E0,0E0,0E0,0E0,0E0,0E0,0E0,0E0,0E0,0E0,0E0,0E0,0E0,0E0,0E0,0E0,0E0,0E0,0E0,0E0],"parents":[2147483647,0,0,1,1,2,2,3,3,4,4,5,5,6,6,7,7,8,8,9,9,10,10,11,11,12,12,13,13,14,14,15,15,16,16,17,17,18,18,19,19,20,20,23,23,24,24,25,25,26,26,27,27,28,28,29,29,30,30],"right_children":[2,4,6,8,10,12,14,16,18,20,22,24,26,28,30,32,34,36,38,40,42,-1,-1,44,46,48,50,52,54,56,58,-1,-1,-1,-1,-1,-1,-1,-1,-1,-1,-1,-1,-1,-1,-1,-1,-1,-1,-1,-1,-1,-1,-1,-1,-1,-1,-1,-1],"split_conditions":[-1.1400002E-1,3.71E0,-7.7162413E-3,1.4475E0,4.206E0,3.2615001E0,1.7999887E-2,2.7907879E1,4.346999E0,1.5059543E-2,3.4951803E-3,1.394E1,-9.000063E-3,-6.74433E-4,8.762659E-3,-4.183241E-3,7.1601234E-3,5.46612E0,9.6E1,-7.2949976E-1,1.0319E2,2.2408998E-2,-5.8619257E-2,-3.5331492E0,1.0999918E-2,4.1899708E1,1.6850004E-2,2.748E0,-8.651821E-3,3.1000018E-2,1.9289685E-2,2.4065001E-2,-5.523565E-2,-7.830933E-2,-2.8164102E-2,-1.4063226E-2,3.7909906E-2,2.8416911E-2,-3.4775447E-2,1.5604712E-2,-3.3905804E-2,1.5636725E-2,6.052509E-2,7.5679957E-3,-3.8683113E-2,6.751907E-3,5.135802E-2,5.7402175E-2,-2.9039308E-2,-6.344091E-2,2.2870821E-3,2.5363807E-2,2.1904306E-3,-3.2022E-2,3.7275762E-3,-3.1105733E-2,-1.173794E-3,-4.6721492E-2,-2.9207866E-3],"split_indices":[7,6,1,9,6,9,7,3,9,2,1,8,7,1,1,5,1,3,4,9,4,0,0,3,7,0,5,6,2,7,1,0,0,0,0,0,0,0,0,0,0,0,0,0,0,0,0,0,0,0,0,0,0,0,0,0,0,0,0],"split_type":[0,0,0,0,0,0,0,0,0,0,0,0,0,0,0,0,0,0,0,0,0,0,0,0,0,0,0,0,0,0,0,0,0,0,0,0,0,0,0,0,0,0,0,0,0,0,0,0,0,0,0,0,0,0,0,0,0,0,0],"sum_hessian":[4.9485144E2,3.8845783E1,4.5600565E2,2.8400509E1,1.0445276E1,6.462888E1,3.9137677E2,1.4966644E1,1.3433865E1,6.2103667E0,4.23491E0,5.544457E1,9.184312E0,2.2606094E2,1.6531583E2,9.720942E0,5.2457023E0,5.2096305E0,8.224234E0,2.7384665E0,3.4719E0,1.7363617E0,2.498548E0,1.8641264E1,3.6803303E1,3.4739285E0,5.710384E0,6.867455E1,1.5738638E2,1.50852E2,1.4463824E1,3.2295501E0,6.491391E0,3.4962022E0,1.7495002E0,1.7393092E0,3.4703212E0,1.2388717E0,6.9853625E0,1.4909713E0,1.2474952E0,1.491507E0,1.9803929E0,1.2920425E1,5.720839E0,1.3829661E1,2.2973642E1,1.7301444E0,1.7437841E0,3.982597E0,1.7277868E0,4.3349503E1,2.5325048E1,1.2221463E1,1.4516492E2,2.1894938E1,1.2895708E2,1.1970022E1,2.4938016E0],"tree_param":{"num_deleted":"0","num_feature":"10","num_nodes":"59","size_leaf_vector":"1"}},{"base_weights":[-1.1047516E-3,-3.7775072E-1,3.172576E-2,-5.608132E-1,1.3377156E-2,2.7386788E-1,-8.7712435E-3,-2.1821877E-1,-1.1767944E0,4.885628E-2,-2.599174E-1,3.9766365E-1,-4.3773836E-1,1.0918248E-1,-1.6960564E-1,-6.574622E-1,3.3246318E-1,-6.833585E-2,-1.0608434E-2,-1.1440411E0,2.7239913E-1,-1.5112452E-1,6.7341447E-1,3.3438885E-1,-8.8567793E-1,4.171538E-2,4.3535417E-1,-9.636971E-1,-1.2354859E-1,1.6452618E-2,-5.1829923E-2,-3.6256604E-2,4.580518E-2,-1.2412972E-2,-7.057932E-2,-7.4467272E-3,5.6718577E-2,1.1856676E-2,-3.0898163E-2,6.4415904E-3,4.9187493E-2,5.5829167E-2,-2.8106188E-2,-6.082828E-2,2.2150022E-3,2.3477023E-2,-1.386757E-3,-6.4884955E-3,3.4565352E-2,8.847674E-3,-5.8505513E-2,-3.3905157E-3,-3.3632882E-2],"categories":[],"categories_nodes":[],"categories_segments":[],"categories_sizes":[],"default_left":[0,0,0,0,0,0,0,0,0,0,0,0,0,0,0,0,0,0,0,0,0,0,0,0,0,0,0,0,0,0,0,0,0,0,0,0,0,0,0,0,0,0,0,0,0,0,0,0,0,0,0,0,0],"id":5,"left_children":[1,3,5,7,9,11,13,15,17,-1,19,21,23,25,27,29,31,-1,-1,33,35,37,39,41,43,45,47,49,51,-1,-1,-1,-1,-1,-1,-1,-1,-1,-1,-1,-1,-1,-1,-1,-1,-1,-1,-1,-1,-1,-1,-1,-1],"loss_changes":[6.1402717E0,2.858132E0,4.4816356E0,5.471246E0,3.854411E0,5.942435E0,7.4609194E0,4.7344937E0,1.4455662E0,0E0,5.6955175E0,8.621652E0,3.8168266E0,4.975642E0,5.96579E0,4.3512216E0,6.187615E0,0E0,0E0,7.2599745E-1,3.0555456E0,3.7073271E0,6.23711E0,3.757449E0,2.1205578E0,5.632942E0,5.700268E0,2.3198328E0,4.8024297E0,0E0,0E0,0E0,0E0,0E0,0E0,0E0,0E0,0E0,0E0,0E0,0E0,0E0,0E0,0E0,0E0,0E0,0E0,0E0,0E0,0E0,0E0,0E0,0E0],"parents":[2147483647,0,0,1,1,2,2,3,3,4,4,5,5,6,6,7,7,8,8,10,10,11,11,12,12,13,13,14,14,15,15,16,16,19,19,20,20,21,21,22,22,23,23,24,24,25,25,26,26,27,27,28,28],"right_children":[2,4,6,8,10,12,14,16,18,-1,20,22,24,26,28,30,32,-1,-1,34,36,38,40,42,44,46,48,50,52,-1,-1,-1,-1,-1,-1,-1,-1,-1,-1,-1,-1,-1,-1,-1,-1,-1,-1,-1,-1,-1,-1,-1,-1],"split_conditions":[-1.1400002E-1,3.564E0,-7.7162413E-3,2.794E0,-1.0020649E1,3.2615001E0,1.7999887E-2,1.72E0,-1.3800001E-1,4.885628E-2,5.6134727E1,1.394E1,-9.000063E-3,1.9999743E-3,9.036E1,7.0289725E-1,1.694E1,-6.833585E-2,-1.0608434E-2,1.264E1,2.2503499E-2,4.0782117E-3,1.0999918E-2,4.1899708E1,1.6850004E-2,-3.6010318E-3,1.304E1,-1.6206382E-2,8.762659E-3,1.6452618E-2,-5.1829923E-2,-3.6256604E-2,4.580518E-2,-1.2412972E-2,-7.057932E-2,-7.4467272E-3,5.6718577E-2,1.1856676E-2,-3.0898163E-2,6.4415904E-3,4.9187493E-2,5.5829167E-2,-2.8106188E-2,-6.082828E-2,2.2150022E-3,2.3477023E-2,-1.386757E-3,-6.4884955E-3,3.4565352E-2,8.847674E-3,-5.8505513E-2,-3.3905157E-3,-3.3632882E-2],"split_indices":[7,6,1,6,3,9,7,6,7,0,0,8,7,7,4,3,8,0,0,8,2,5,7,0,5,1,8,2,1,0,0,0,0,0,0,0,0,0,0,0,0,0,0,0,0,0,0,0,0,0,0,0,0],"split_type":[0,0,0,0,0,0,0,0,0,0,0,0,0,0,0,0,0,0,0,0,0,0,0,0,0,0,0,0,0,0,0,0,0,0,0,0,0,0,0,0,0,0,0,0,0,0,0,0,0,0,0,0,0],"sum_hessian":[4.9459637E2,3.8812805E1,4.5578357E2,2.6143047E1,1.2669756E1,6.4479744E1,3.913038E2,1.7669786E1,8.473261E0,2.2301123E0,1.0439644E1,5.5300476E1,9.179267E0,2.2593059E2,1.6537323E2,9.721594E0,7.948193E0,6.731147E0,1.7421143E0,3.4914787E0,6.9481654E0,1.86453E1,3.6655174E1,3.4631772E0,5.7160897E0,1.8814217E2,3.7788433E1,7.9735456E0,1.5739967E2,2.7356129E0,6.985981E0,2.7402492E0,5.207944E0,1.2463678E0,2.2451108E0,5.2225766E0,1.7255887E0,1.0448003E1,8.197297E0,1.3819528E1,2.2835648E1,1.7184125E0,1.7447647E0,3.9887276E0,1.7273619E0,2.5471752E1,1.6267041E2,1.1933401E1,2.5855034E1,1.2436708E0,6.7298746E0,1.4391484E2,1.3484838E1],"tree_param":{"num_deleted":"0","num_feature":"10","num_nodes":"53","size_leaf_vector":"1"}},{"base_weights":[-1.2769797E-3,-3.614815E-1,3.0103168E-2,-6.3505477E-1,-1.02017276E-1,1.1294786E-1,-7.8331426E-2,-2.6528743E-1,-1.0699579E0,-4.739728E-1,5.071193E-1,-8.84736E-2,2.4070506E-1,-6.541892E-1,-4.960007E-3,1.4385366E-1,-6.86418E-2,-9.9669015E-3,-1.2657375E0,-6.7533606E-1,1.9985814E-2,-9.9215575E-2,5.8737792E-2,-1.586897E-1,8.158852E-1,3.1959033E-1,-3.0330887E-1,-3.2301423E-1,-1.339966E0,5.3549092E-2,-7.321299E-1,3.5599425E-2,-1.9889915E-2,-7.297171E-2,-1.1505003E-2,-4.923786E-2,8.632726E-3,2.3594378E-2,-5.634266E-2,-1.4943716E-2,1.4816514E-2,1.4920845E-2,6.6087924E-2,1.2259997E-2,3.3891767E-2,-2.9603252E-2,3.0250287E-2,-3.9626915E-2,1.934615E-2,-7.618139E-2,-1.3716784E-2,2.5514785E-2,-1.023623E-3,-4.595695E-2,6.3364706E-3],"categories":[],"categories_nodes":[],"categories_segments":[],"categories_sizes":[],"default_left":[0,0,0,0,0,0,0,0,0,0,0,0,0,0,0,0,0,0,0,0,0,0,0,0,0,0,0,0,0,0,0,0,0,0,0,0,0,0,0,0,0,0,0,0,0,0,0,0,0,0,0,0,0,0,0],"id":6,"left_children":[1,3,5,7,9,11,13,15,17,19,21,23,25,27,29,31,-1,-1,33,35,-1,37,-1,39,41,43,45,47,49,51,53,-1,-1,-1,-1,-1,-1,-1,-1,-1,-1,-1,-1,-1,-1,-1,-1,-1,-1,-1,-1,-1,-1,-1,-1],"loss_changes":[5.6095057E0,2.7581291E0,4.1100593E0,2.7984366E0,5.1348333E0,6.691781E0,8.376168E0,5.4942265E0,1.1927633E0,2.7205002E0,3.6275072E0,6.564382E0,6.9153204E0,4.6557045E0,7.5663195E0,3.1884723E0,0E0,0E0,1.0151424E0,3.2378507E0,0E0,3.7404468E0,0E0,6.140174E0,1.5594153E0,3.5447521E0,5.7701874E0,5.78217E0,9.4787216E-1,5.5779185E0,2.2435102E0,0E0,0E0,0E0,0E0,0E0,0E0,0E0,0E0,0E0,0E0,0E0,0E0,0E0,0E0,0E0,0E0,0E0,0E0,0E0,0E0,0E0,0E0,0E0,0E0],"parents":[2147483647,0,0,1,1,2,2,3,3,4,4,5,5,6,6,7,7,8,8,9,9,10,10,11,11,12,12,13,13,14,14,15,15,18,18,19,19,21,21,23,23,24,24,25,25,26,26,27,27,28,28,29,29,30,30],"right_children":[2,4,6,8,10,12,14,16,18,20,22,24,26,28,30,32,-1,-1,34,36,-1,38,-1,40,42,44,46,48,50,52,54,-1,-1,-1,-1,-1,-1,-1,-1,-1,-1,-1,-1,-1,-1,-1,-1,-1,-1,-1,-1,-1,-1,-1,-1],"split_conditions":[-1.1400002E-1,1.0467649E-2,2.00001E-2,2.287E1,2.203E1,9.562E1,3.1000018E-2,-1.23999834E-1,-4.672266E-3,7.145305E1,-1.9099998E-1,4.6286945E1,7.6480484E1,-1.0000019E-1,8.762659E-3,-6.2296295E-4,-6.86418E-2,-9.9669015E-3,-1.3800001E-1,1.227405E-2,1.9985814E-2,-2.3600006E-1,5.8737792E-2,-9.999275E-4,2.422E1,1.4091253E-2,1.776621E-2,-1.1959996E0,1.0182E2,1.484E0,1.9289685E-2,3.5599425E-2,-1.9889915E-2,-7.297171E-2,-1.1505003E-2,-4.923786E-2,8.632726E-3,2.3594378E-2,-5.634266E-2,-1.4943716E-2,1.4816514E-2,1.4920845E-2,6.6087924E-2,1.2259997E-2,3.3891767E-2,-2.9603252E-2,3.0250287E-2,-3.9626915E-2,1.934615E-2,-7.618139E-2,-1.3716784E-2,2.5514785E-2,-1.023623E-3,-4.595695E-2,6.3364706E-3],"split_indices":[7,2,7,8,8,4,7,7,1,0,7,3,0,9,1,1,0,0,7,1,0,7,0,7,8,2,2,9,4,6,1,0,0,0,0,0,0,0,0,0,0,0,0,0,0,0,0,0,0,0,0,0,0,0,0],"split_type":[0,0,0,0,0,0,0,0,0,0,0,0,0,0,0,0,0,0,0,0,0,0,0,0,0,0,0,0,0,0,0,0,0,0,0,0,0,0,0,0,0,0,0,0,0,0,0,0,0,0,0,0,0,0,0],"sum_hessian":[4.943101E2,3.876919E1,4.555409E2,1.816688E1,2.0602312E1,2.5821866E2,1.9732224E2,1.0688877E1,7.478003E0,1.2929251E1,7.673062E0,1.0033632E2,1.5788232E2,2.1405376E1,1.7591687E2,8.440846E0,2.2480302E0,1.7433974E0,5.734606E0,1.0692036E1,2.237215E0,4.4673195E0,3.2057421E0,9.387241E1,6.4638996E0,1.3824806E2,1.9634264E1,1.5426593E1,5.978783E0,1.636738E2,1.2243063E1,3.9662254E0,4.4746213E0,4.4863114E0,1.2482944E0,7.715474E0,2.976562E0,3.2191186E0,1.2482011E0,7.20256E1,2.1846817E1,3.9812753E0,2.4826243E0,1.1587153E2,2.2376534E1,1.51622925E1,4.4719706E0,9.215488E0,6.2111044E0,4.7332206E0,1.2455626E0,2.2004175E1,1.4166963E2,9.996275E0,2.2467873E0],"tree_param":{"num_deleted":"0","num_feature":"10","num_nodes":"55","size_leaf_vector":"1"}},{"base_weights":[-1.4855388E-3,-3.0662408E-1,3.3207487E-2,-4.9565592E-1,2.5737795E-1,1.1957527E-1,-7.505721E-2,1.1590424E-2,-6.853274E-1,-2.8149775E-1,6.947692E-1,-2.5253404E-2,2.713346E-1,-4.223278E-1,3.9531153E-2,-5.1190842E-2,3.3901432E-1,-7.805289E-1,2.3613786E-2,4.794546E-1,-5.58557E-2,9.325843E-1,-1.4865178E-2,-8.007186E-2,1.0620642E0,3.5931978E-1,-3.4465194E-1,-2.841297E-1,-7.363664E-2,-5.6960437E-2,5.275352E-1,5.3844746E-2,-1.9730447E-2,-4.3982353E-2,1.4106211E-2,-2.7955363E-3,4.903018E-2,2.0005384E-2,6.3748404E-2,-1.0026434E-2,1.337224E-2,6.85652E-2,1.7699746E-2,1.9685427E-2,-3.135721E-2,-3.242994E-2,2.7970651E-2,1.4260276E-3,-3.424013E-2,1.4688111E-2,-9.67229E-3,6.314745E-2,7.1217814E-3],"categories":[],"categories_nodes":[],"categories_segments":[],"categories_sizes":[],"default_left":[0,0,0,0,0,0,0,0,0,0,0,0,0,0,0,0,0,0,0,0,0,0,0,0,0,0,0,0,0,0,0,0,0,0,0,0,0,0,0,0,0,0,0,0,0,0,0,0,0,0,0,0,0],"id":7,"left_children":[1,3,5,7,9,11,13,15,17,19,21,23,25,27,29,-1,31,33,-1,35,-1,37,-1,39,41,43,45,47,-1,49,51,-1,-1,-1,-1,-1,-1,-1,-1,-1,-1,-1,-1,-1,-1,-1,-1,-1,-1,-1,-1,-1,-1],"loss_changes":[5.2512703E0,5.5265937E0,4.1741652E0,3.6899347E0,3.3469706E0,5.461329E0,7.90691E0,4.211517E0,3.4402027E0,4.797115E0,2.0864825E0,7.7083893E0,6.696331E0,6.7351637E0,7.0933456E0,0E0,5.5196657E0,3.0004368E0,0E0,1.1836526E0,0E0,6.61664E-1,0E0,5.189481E0,8.740506E-1,3.8631907E0,4.667955E0,5.6302533E0,0E0,6.0949945E0,6.860771E0,0E0,0E0,0E0,0E0,0E0,0E0,0E0,0E0,0E0,0E0,0E0,0E0,0E0,0E0,0E0,0E0,0E0,0E0,0E0,0E0,0E0,0E0],"parents":[2147483647,0,0,1,1,2,2,3,3,4,4,5,5,6,6,7,7,8,8,9,9,10,10,11,11,12,12,13,13,14,14,16,16,17,17,19,19,21,21,23,23,24,24,25,25,26,26,27,27,29,29,30,30],"right_children":[2,4,6,8,10,12,14,16,18,20,22,24,26,28,30,-1,32,34,-1,36,-1,38,-1,40,42,44,46,48,-1,50,52,-1,-1,-1,-1,-1,-1,-1,-1,-1,-1,-1,-1,-1,-1,-1,-1,-1,-1,-1,-1,-1,-1],"split_conditions":[-9.899998E-2,2.142807E-2,2.00001E-2,-2.3874016E-3,-1.6100001E-1,9.679E1,4.400003E-2,3.6848816E1,7.954552E1,-2.3600006E-1,1.4999596E-2,1.4655768E-2,7.605281E1,1.2445437E-2,6.505461E1,-5.1190842E-2,5.7004177E1,1.5858227E-2,2.3613786E-2,6.934204E1,-5.58557E-2,2.035E1,-1.4865178E-2,-2.9999614E-3,-6.279998E-1,4.571E0,3.86E0,2.492E0,-7.363664E-2,-1.6414999E0,-2.544473E-3,5.3844746E-2,-1.9730447E-2,-4.3982353E-2,1.4106211E-2,-2.7955363E-3,4.903018E-2,2.0005384E-2,6.3748404E-2,-1.0026434E-2,1.337224E-2,6.85652E-2,1.7699746E-2,1.9685427E-2,-3.135721E-2,-3.242994E-2,2.7970651E-2,1.4260276E-3,-3.424013E-2,1.4688111E-2,-9.67229E-3,6.314745E-2,7.1217814E-3],"split_indices":[7,2,7,1,7,4,7,0,0,7,1,1,0,2,0,0,0,1,0,0,0,8,0,7,9,6,6,6,0,9,1,0,0,0,0,0,0,0,0,0,0,0,0,0,0,0,0,0,0,0,0,0,0],"split_type":[0,0,0,0,0,0,0,0,0,0,0,0,0,0,0,0,0,0,0,0,0,0,0,0,0,0,0,0,0,0,0,0,0,0,0,0,0,0,0,0,0,0,0,0,0,0,0,0,0,0,0,0,0],"sum_hessian":[4.940878E2,4.964068E1,4.4444714E2,3.7270287E1,1.2370391E1,2.4716647E2,1.9728065E2,1.0398918E1,2.687137E1,5.701918E0,6.668473E0,1.2689766E2,1.20268814E2,4.8279522E1,1.4900114E2,1.9873786E0,8.411539E0,2.513038E1,1.7409903E0,3.2073643E0,2.494554E0,5.4274044E0,1.2410684E0,1.2168892E2,5.2087383E0,1.0560173E2,1.4667078E1,4.3788868E1,4.4906516E0,1.2514072E2,2.3860422E1,3.9603221E0,4.4512167E0,2.314387E1,1.9865111E0,1.9802964E0,1.2270678E0,2.972756E0,2.4546483E0,9.068017E1,3.1008753E1,2.973445E0,2.2352934E0,1.0262505E2,2.9766836E0,1.1188184E1,3.4788947E0,2.5117878E1,1.867099E1,3.4733826E1,9.040689E1,7.416948E0,1.6443474E1],"tree_param":{"num_deleted":"0","num_feature":"10","num_nodes":"53","size_leaf_vector":"1"}},{"base_weights":[-1.239191E-3,1.1691608E-1,-8.834903E-2,2.3563445E-1,-6.836207E-2,-1.0476498E-1,9.687103E-1,1.15418196E-1,4.7086245E-1,2.4159156E-1,-2.374312E-1,-9.499916E-3,-2.9339156E-1,6.092695E-2,1.3933278E-2,-7.663822E-2,3.8525885E-1,6.5591466E-1,-5.0522065E-1,-7.5303173E-1,3.696371E-1,-5.1472163E-1,1.2622963E-1,-7.294008E-2,4.2668906E-1,-8.2052004E-1,-1.1559675E-1,6.651293E-3,-3.7072357E-2,2.6580874E-2,-1.1262421E-2,4.185447E-2,-2.647829E-3,-6.2126346E-2,-5.5048033E-3,5.4820133E-3,-6.1120626E-2,-7.916055E-3,2.9418273E-2,-4.4280928E-2,-5.5634673E-3,-5.053568E-2,1.4376941E-2,-2.6756573E-2,-1.2554293E-3,5.110084E-2,5.6573655E-3,-4.7088746E-2,2.2536643E-2,6.055946E-2,-8.523679E-3],"categories":[],"categories_nodes":[],"categories_segments":[],"categories_sizes":[],"default_left":[0,0,0,0,0,0,0,0,0,0,0,0,0,0,0,0,0,0,0,0,0,0,0,0,0,0,0,0,0,0,0,0,0,0,0,0,0,0,0,0,0,0,0,0,0,0,0,0,0,0,0],"id":8,"left_children":[1,3,5,7,9,11,13,15,17,19,21,23,25,-1,-1,27,29,31,33,35,37,39,41,43,45,47,49,-1,-1,-1,-1,-1,-1,-1,-1,-1,-1,-1,-1,-1,-1,-1,-1,-1,-1,-1,-1,-1,-1,-1,-1],"loss_changes":[5.103445E0,4.644677E0,5.054101E0,3.5787182E0,4.404385E0,5.063677E0,4.2968416E-1,4.504485E0,8.121359E0,4.070215E0,5.5283947E0,5.2436323E0,8.769183E0,0E0,0E0,7.246196E0,3.3426547E0,4.7563295E0,2.0301604E0,1.6423805E0,3.2166903E0,4.5308466E0,4.736639E0,3.640998E0,4.376143E0,4.0762997E0,5.44067E0,0E0,0E0,0E0,0E0,0E0,0E0,0E0,0E0,0E0,0E0,0E0,0E0,0E0,0E0,0E0,0E0,0E0,0E0,0E0,0E0,0E0,0E0,0E0,0E0],"parents":[2147483647,0,0,1,1,2,2,3,3,4,4,5,5,6,6,7,7,8,8,9,9,10,10,11,11,12,12,15,15,16,16,17,17,18,18,19,19,20,20,21,21,22,22,23,23,24,24,25,25,26,26],"right_children":[2,4,6,8,10,12,14,16,18,20,22,24,26,-1,-1,28,30,32,34,36,38,40,42,44,46,48,50,-1,-1,-1,-1,-1,-1,-1,-1,-1,-1,-1,-1,-1,-1,-1,-1,-1,-1,-1,-1,-1,-1,-1,-1],"split_conditions":[-6.74433E-4,9.872E1,4.662E0,4.931727E-3,-7.7162413E-3,2.838E0,7.993691E1,5.300481E1,9.399986E-2,9.912E1,-1.9995205E-3,1.246488E-2,9.679E1,6.092695E-2,1.3933278E-2,4.7955105E1,2.5617613E1,6.0414055E1,1.3E1,1.8999815E-2,1.394E1,-4.1131317E-3,-3.2719994E0,-1.2069619E-2,-1.8814998E0,5.566E0,-2.030656E-2,6.651293E-3,-3.7072357E-2,2.6580874E-2,-1.1262421E-2,4.185447E-2,-2.647829E-3,-6.2126346E-2,-5.5048033E-3,5.4820133E-3,-6.1120626E-2,-7.916055E-3,2.9418273E-2,-4.4280928E-2,-5.5634673E-3,-5.053568E-2,1.4376941E-2,-2.6756573E-2,-1.2554293E-3,5.110084E-2,5.6573655E-3,-4.7088746E-2,2.2536643E-2,6.055946E-2,-8.523679E-3],"split_indices":[1,4,6,5,1,6,0,0,7,4,2,1,4,0,0,0,3,0,8,7,8,1,9,5,9,9,2,0,0,0,0,0,0,0,0,0,0,0,0,0,0,0,0,0,0,0,0,0,0,0,0],"split_type":[0,0,0,0,0,0,0,0,0,0,0,0,0,0,0,0,0,0,0,0,0,0,0,0,0,0,0,0,0,0,0,0,0,0,0,0,0,0,0,0,0,0,0,0,0,0,0,0,0,0,0],"sum_hessian":[4.9383826E2,2.0942848E2,2.8440976E2,1.2747569E2,8.19528E1,2.8094757E2,3.4621801E0,8.534812E1,4.2127575E1,2.8773508E1,5.3179287E1,1.8736833E2,9.357924E1,1.9795911E0,1.4825891E0,5.027872E1,3.5069397E1,3.5689365E1,6.43821E0,2.725054E0,2.6048454E1,2.9937006E1,2.324228E1,1.6430437E2,2.3063965E1,2.2690664E1,7.088857E1,3.883199E1,1.1446733E1,2.83921E1,6.677298E0,2.82805E1,7.408865E0,1.4980983E0,4.9401116E0,1.2303029E0,1.4947511E0,7.711324E0,1.833713E1,1.4975141E1,1.4961865E1,2.2336094E0,2.100867E1,1.4453514E1,1.4985086E2,7.1770935E0,1.588687E1,2.0951447E1,1.7392184E0,1.9786514E0,6.890993E1],"tree_param":{"num_deleted":"0","num_feature":"10","num_nodes":"51","size_leaf_vector":"1"}},{"base_weights":[-1.2299463E-3,-2.8863332E-1,3.143126E-2,-4.691489E-1,2.506741E-1,1.1242175E-1,-7.005038E-2,8.194243E-3,-6.470152E-1,-2.663693E-1,6.703129E-1,-8.3057605E-2,2.1610446E-1,-6.0369205E-1,-2.0825488E-3,-4.952742E-2,3.252197E-1,-7.382775E-1,2.2990802E-2,-5.4327834E-2,4.7594267E-1,9.0224224E-1,-1.4541956E-2,-1.5378883E-1,5.9304483E-2,2.8423277E-1,-3.150272E-1,-2.8951076E-1,-1.256811E0,5.3924333E-2,-6.981613E-1,5.1664557E-2,-1.8798938E-2,-4.297276E-2,4.6356176E-3,5.1603492E-2,-9.833783E-3,1.2554209E-2,5.682167E-2,-2.7237236E-2,-6.980476E-4,-1.5687509E-2,1.653696E-2,-2.8926328E-2,3.0020481E-2,-5.4709144E-2,5.2603683E-3,-7.179833E-2,-1.2067034E-2,2.4148775E-2,-7.725989E-4,-4.386441E-2,6.1933496E-3],"categories":[],"categories_nodes":[],"categories_segments":[],"categories_sizes":[],"default_left":[0,0,0,0,0,0,0,0,0,0,0,0,0,0,0,0,0,0,0,0,0,0,0,0,0,0,0,0,0,0,0,0,0,0,0,0,0,0,0,0,0,0,0,0,0,0,0,0,0,0,0,0,0],"id":9,"left_children":[1,3,5,7,9,11,13,15,17,19,21,23,25,27,29,-1,31,33,-1,-1,35,37,-1,39,-1,41,43,45,47,49,51,-1,-1,-1,-1,-1,-1,-1,-1,-1,-1,-1,-1,-1,-1,-1,-1,-1,-1,-1,-1,-1,-1],"loss_changes":[4.6502285E0,5.0390453E0,3.6643212E0,3.250575E0,3.0705981E0,5.0403237E0,7.1829896E0,3.9202123E0,3.1536064E0,4.5885158E0,1.965956E0,7.956731E0,5.9586225E0,4.227298E0,6.9263315E0,0E0,5.0449343E0,2.7100077E0,0E0,0E0,1.7761436E0,6.9066143E-1,0E0,4.52522E0,0E0,4.1162615E0,4.9097204E0,5.3260875E0,9.2109776E-1,4.903064E0,2.0567985E0,0E0,0E0,0E0,0E0,0E0,0E0,0E0,0E0,0E0,0E0,0E0,0E0,0E0,0E0,0E0,0E0,0E0,0E0,0E0,0E0,0E0,0E0],"parents":[2147483647,0,0,1,1,2,2,3,3,4,4,5,5,6,6,7,7,8,8,9,9,10,10,11,11,12,12,13,13,14,14,16,16,17,17,20,20,21,21,23,23,25,25,26,26,27,27,28,28,29,29,30,30],"right_children":[2,4,6,8,10,12,14,16,18,20,22,24,26,28,30,-1,32,34,-1,-1,36,38,-1,40,-1,42,44,46,48,50,52,-1,-1,-1,-1,-1,-1,-1,-1,-1,-1,-1,-1,-1,-1,-1,-1,-1,-1,-1,-1,-1,-1],"split_conditions":[-9.899998E-2,2.142807E-2,2.00001E-2,-2.3874016E-3,-1.6100001E-1,9.481E1,3.1000018E-2,3.6848816E1,7.954552E1,2.177E1,1.4999596E-2,1.4655768E-2,7.6480484E1,-1.0000019E-1,8.762659E-3,-4.952742E-2,5.7004177E1,1.227405E-2,2.2990802E-2,-5.4327834E-2,4.346999E0,1.64E0,-1.4541956E-2,-5.5066547E-3,5.9304483E-2,-1.2289498E-2,1.776621E-2,-2.8559992E0,1.0182E2,1.484E0,1.9289685E-2,5.1664557E-2,-1.8798938E-2,-4.297276E-2,4.6356176E-3,5.1603492E-2,-9.833783E-3,1.2554209E-2,5.682167E-2,-2.7237236E-2,-6.980476E-4,-1.5687509E-2,1.653696E-2,-2.8926328E-2,3.0020481E-2,-5.4709144E-2,5.2603683E-3,-7.179833E-2,-1.2067034E-2,2.4148775E-2,-7.725989E-4,-4.386441E-2,6.1933496E-3],"split_indices":[7,2,7,1,7,4,7,0,0,8,1,1,0,9,1,0,0,1,0,0,9,6,0,2,0,5,2,9,4,6,1,0,0,0,0,0,0,0,0,0,0,0,0,0,0,0,0,0,0,0,0,0,0],"split_type":[0,0,0,0,0,0,0,0,0,0,0,0,0,0,0,0,0,0,0,0,0,0,0,0,0,0,0,0,0,0,0,0,0,0,0,0,0,0,0,0,0,0,0,0,0,0,0,0,0,0,0,0,0],"sum_hessian":[4.9342694E2,4.9552338E1,4.438746E2,3.7223183E1,1.2329158E1,2.4680034E2,1.9707426E2,1.0363743E1,2.6859438E1,5.687161E0,6.6419964E0,8.560428E1,1.6119606E2,2.1374308E1,1.7569997E2,1.9851881E0,8.378554E0,2.5121094E1,1.7383441E0,2.481539E0,3.205622E0,5.4002E0,1.2417965E0,8.1917725E1,3.6865568E0,1.432821E2,1.7913954E1,1.5406379E1,5.967928E0,1.6346964E2,1.2230326E1,3.933198E0,4.445357E0,2.1894161E1,3.2269342E0,1.4622303E0,1.7433918E0,1.9765697E0,3.4236305E0,2.0817263E1,6.1100464E1,9.924593E0,1.3335751E2,1.4195852E1,3.7181022E0,4.4870405E0,1.0919339E1,4.72094E0,1.2469879E0,2.1923592E1,1.4154604E2,9.9868765E0,2.2434485E0],"tree_param":{"num_deleted":"0","num_feature":"10","num_nodes":"53","size_leaf_vector":"1"}},{"base_weights":[-1.3704489E-3,1.0924651E-1,-8.281727E-2,5.6813476E-3,3.0800566E-1,-9.8849066E-2,9.50449E-1,4.1221023E-1,-8.1082106E-2,6.2338144E-1,2.866348E-2,-4.2083088E-1,-4.9042974E-2,5.9621584E-2,1.3904518E-2,-5.1026363E-2,5.654327E-1,9.893442E-2,-3.5907862E-1,-3.7980538E-2,7.94555E-1,-3.6330336E-1,2.7436203E-1,-5.3470814E-1,7.6619965E-1,2.7757648E-1,-1.0218781E-1,-4.1781504E-2,3.507039E-2,1.2455367E-2,-2.6864175E-2,2.1556055E-2,-3.2406636E-2,-3.8255896E-2,3.5383157E-2,-1.4801572E-2,4.774645E-2,-3.398141E-2,1.7742058E-2,-1.8219817E-2,2.9879833E-2,-1.0634079E-2,-4.9428757E-2,5.987515E-3,5.205893E-2,-7.3109837E-3,3.997509E-2,-3.8518142E-2,-1.8160552E-3],"categories":[],"categories_nodes":[],"categories_segments":[],"categories_sizes":[],"default_left":[0,0,0,0,0,0,0,0,0,0,0,0,0,0,0,0,0,0,0,0,0,0,0,0,0,0,0,0,0,0,0,0,0,0,0,0,0,0,0,0,0,0,0,0,0,0,0,0,0],"id":10,"left_children":[1,3,5,7,9,11,13,15,17,19,21,23,25,-1,-1,-1,27,29,31,33,35,37,39,41,43,45,47,-1,-1,-1,-1,-1,-1,-1,-1,-1,-1,-1,-1,-1,-1,-1,-1,-1,-1,-1,-1,-1,-1],"loss_changes":[4.4602695E0,4.319862E0,4.816986E0,4.937769E0,6.316407E0,4.4963903E0,3.9247656E-1,5.981889E0,5.8117924E0,3.8479786E0,3.872612E0,5.492507E0,4.282281E0,0E0,0E0,0E0,4.945972E0,6.902265E0,1.0690819E1,4.818301E0,4.9762955E0,3.7680175E0,5.307479E0,4.890486E0,5.334823E-1,7.762165E0,9.280382E0,0E0,0E0,0E0,0E0,0E0,0E0,0E0,0E0,0E0,0E0,0E0,0E0,0E0,0E0,0E0,0E0,0E0,0E0,0E0,0E0,0E0,0E0],"parents":[2147483647,0,0,1,1,2,2,3,3,4,4,5,5,6,6,7,7,8,8,9,9,10,10,11,11,12,12,16,16,17,17,18,18,19,19,20,20,21,21,22,22,23,23,24,24,25,25,26,26],"right_children":[2,4,6,8,10,12,14,16,18,20,22,24,26,-1,-1,-1,28,30,32,34,36,38,40,42,44,46,48,-1,-1,-1,-1,-1,-1,-1,-1,-1,-1,-1,-1,-1,-1,-1,-1,-1,-1,-1,-1,-1,-1],"split_conditions":[-6.74433E-4,-6.0574675E-4,4.662E0,-2.3054996E0,5.227754E-3,4.7143913E-4,7.993691E1,9.065E1,9.872E1,-2.0745E0,8.873005E-3,4.137E0,1.2E1,5.9621584E-2,1.3904518E-2,-5.1026363E-2,-8.705501E0,-3.0705656E-3,-3.4042274E1,1.789E1,1.15E1,3.5999998E-1,1.732E0,9.827E1,-9.99999E-3,2.37E0,1.267E1,-4.1781504E-2,3.507039E-2,1.2455367E-2,-2.6864175E-2,2.1556055E-2,-3.2406636E-2,-3.8255896E-2,3.5383157E-2,-1.4801572E-2,4.774645E-2,-3.398141E-2,1.7742058E-2,-1.8219817E-2,2.9879833E-2,-1.0634079E-2,-4.9428757E-2,5.987515E-3,5.205893E-2,-7.3109837E-3,3.997509E-2,-3.8518142E-2,-1.8160552E-3],"split_indices":[1,2,6,9,2,1,0,4,4,9,2,6,8,0,0,0,9,2,3,8,8,9,6,4,7,6,8,0,0,0,0,0,0,0,0,0,0,0,0,0,0,0,0,0,0,0,0,0,0],"split_type":[0,0,0,0,0,0,0,0,0,0,0,0,0,0,0,0,0,0,0,0,0,0,0,0,0,0,0,0,0,0,0,0,0,0,0,0,0,0,0,0,0,0,0,0,0,0,0,0,0],"sum_hessian":[4.9306418E2,2.0894472E2,2.8411948E2,1.380442E2,7.090053E1,2.8066904E2,3.4504275E0,2.3620363E1,1.14423836E2,3.272386E1,3.8176662E1,3.660152E1,2.4406752E2,1.9684682E0,1.4819595E0,1.7351422E0,2.1885221E1,6.984187E1,4.458196E1,6.8881793E0,2.5835684E1,1.4525401E1,2.365126E1,3.389898E1,2.702542E0,3.3564236E1,2.1050328E2,1.4808936E0,2.0404327E1,5.69968E1,1.2845073E1,1.180865E1,3.277331E1,3.4741437E0,3.4140356E0,3.2037091E0,2.2631973E1,1.012099E1,4.4044113E0,7.904158E0,1.5747103E1,2.0688633E1,1.3210347E1,1.2348998E0,1.4676423E0,1.892072E1,1.4643515E1,1.7929039E1,1.9257425E2],"tree_param":{"num_deleted":"0","num_feature":"10","num_nodes":"49","size_leaf_vector":"1"}},{"base_weights":[-1.2704491E-3,-2.7142912E-1,2.9383218E-2,-4.4330937E-1,2.4268572E-1,1.071297E-1,-6.802666E-2,-6.4883286E-1,-4.845922E-2,-2.5571257E-1,6.473206E-1,-6.039567E-2,2.1777172E-1,-3.893183E-1,3.796313E-2,-4.014294E-1,-1.2076743E0,5.081478E-1,-7.3823655E-1,4.6481574E-1,-5.24194E-2,8.728703E-1,-1.4081466E-2,-1.18299715E-1,1.0198169E0,2.933237E-1,-3.2678616E-1,-2.5804743E-1,-6.9520466E-2,-5.399641E-2,5.0403017E-1,-3.1397622E-2,3.8984377E-2,-1.04068555E-2,-6.913313E-2,-1.8850854E-2,3.7639353E-2,1.0074558E-3,-5.9493728E-2,-2.360447E-3,4.713721E-2,1.7888434E-2,6.069971E-2,7.655283E-3,-1.3884017E-2,1.2798562E-2,6.283684E-2,-1.3410299E-2,1.6881661E-2,-2.8120527E-2,2.7353385E-2,1.5735695E-3,-3.1463202E-2,1.387717E-2,-9.138289E-3,6.0033657E-2,7.089785E-3],"categories":[],"categories_nodes":[],"categories_segments":[],"categories_sizes":[],"default_left":[0,0,0,0,0,0,0,0,0,0,0,0,0,0,0,0,0,0,0,0,0,0,0,0,0,0,0,0,0,0,0,0,0,0,0,0,0,0,0,0,0,0,0,0,0,0,0,0,0,0,0,0,0,0,0,0,0],"id":11,"left_children":[1,3,5,7,9,11,13,15,17,19,21,23,25,27,29,31,33,35,37,39,-1,41,-1,43,45,47,49,51,-1,53,55,-1,-1,-1,-1,-1,-1,-1,-1,-1,-1,-1,-1,-1,-1,-1,-1,-1,-1,-1,-1,-1,-1,-1,-1,-1,-1],"loss_changes":[4.0966825E0,4.5620937E0,3.3722057E0,3.063087E0,2.8430266E0,4.6003838E0,6.751582E0,2.9714594E0,5.801909E0,4.294502E0,1.8404691E0,6.326794E0,6.236957E0,6.1017337E0,6.441866E0,5.5263147E0,9.6683884E-1,2.1059895E0,2.3256476E0,1.0685451E0,0E0,6.845846E-1,0E0,4.154896E0,6.106739E-1,3.3650484E0,4.1495614E0,4.8228626E0,0E0,5.4259458E0,6.078169E0,0E0,0E0,0E0,0E0,0E0,0E0,0E0,0E0,0E0,0E0,0E0,0E0,0E0,0E0,0E0,0E0,0E0,0E0,0E0,0E0,0E0,0E0,0E0,0E0,0E0,0E0],"parents":[2147483647,0,0,1,1,2,2,3,3,4,4,5,5,6,6,7,7,8,8,9,9,10,10,11,11,12,12,13,13,14,14,15,15,16,16,17,17,18,18,19,19,21,21,23,23,24,24,25,25,26,26,27,27,29,29,30,30],"right_children":[2,4,6,8,10,12,14,16,18,20,22,24,26,28,30,32,34,36,38,40,-1,42,-1,44,46,48,50,52,-1,54,56,-1,-1,-1,-1,-1,-1,-1,-1,-1,-1,-1,-1,-1,-1,-1,-1,-1,-1,-1,-1,-1,-1,-1,-1,-1,-1],"split_conditions":[-9.899998E-2,2.142807E-2,2.00001E-2,3.412E0,-1.6100001E-1,9.562E1,4.400003E-2,2.794E0,3.842023E-3,-2.3600006E-1,1.4999596E-2,1.4655768E-2,7.6480484E1,1.2445437E-2,6.505461E1,2.643E0,-6.8422845E-3,-1.4039666E-2,1.0394E2,6.934204E1,-5.24194E-2,2.035E1,-1.4081466E-2,-1.3931247E-3,2.3199121E1,-1.2289498E-2,3.86E0,2.492E0,-6.9520466E-2,-1.6414999E0,-2.544473E-3,-3.1397622E-2,3.8984377E-2,-1.04068555E-2,-6.913313E-2,-1.8850854E-2,3.7639353E-2,1.0074558E-3,-5.9493728E-2,-2.360447E-3,4.713721E-2,1.7888434E-2,6.069971E-2,7.655283E-3,-1.3884017E-2,1.2798562E-2,6.283684E-2,-1.3410299E-2,1.6881661E-2,-2.8120527E-2,2.7353385E-2,1.5735695E-3,-3.1463202E-2,1.387717E-2,-9.138289E-3,6.0033657E-2,7.089785E-3],"split_indices":[7,2,7,6,7,4,7,6,1,7,1,1,0,2,0,6,5,5,4,0,0,8,0,1,3,5,6,6,0,9,1,0,0,0,0,0,0,0,0,0,0,0,0,0,0,0,0,0,0,0,0,0,0,0,0,0,0],"split_type":[0,0,0,0,0,0,0,0,0,0,0,0,0,0,0,0,0,0,0,0,0,0,0,0,0,0,0,0,0,0,0,0,0,0,0,0,0,0,0,0,0,0,0,0,0,0,0,0,0,0,0,0,0,0,0,0,0],"sum_hessian":[4.9272446E2,4.940966E1,4.433148E2,3.7132988E1,1.2276675E1,2.464856E2,1.968292E2,2.399836E1,1.3134626E1,5.665898E0,6.6107774E0,9.822112E1,1.4826448E2,4.81616E1,1.4866759E2,1.782529E1,6.173069E0,7.4147253E0,5.7199016E0,3.1846852E0,2.4812126E0,5.367833E0,1.2429446E0,9.40691E1,4.1520233E0,1.306056E2,1.7658869E1,4.3690346E1,4.4712524E0,1.2490648E2,2.3761114E1,1.5349748E1,2.475543E0,1.245899E0,4.92717E0,1.48836E0,5.9263654E0,2.491533E0,3.2283685E0,1.9725894E0,1.2120959E0,2.9548154E0,2.4130175E0,3.4817905E1,5.925119E1,1.4754581E0,2.6765654E0,9.182595E0,1.2142301E2,1.4189296E1,3.469574E0,2.506045E1,1.8629896E1,3.4618805E1,9.0287674E1,7.336691E0,1.6424423E1],"tree_param":{"num_deleted":"0","num_feature":"10","num_nodes":"57","size_leaf_vector":"1"}},{"base_weights":[-1.219227E-3,6.388586E-2,-1.2246467E-1,2.5113526E-1,-9.518068E-3,-3.668408E-1,3.059753E-2,1.053309E-1,6.4636403E-1,-1.3561097E-1,1.6734482E-1,-1.0835525E-1,-7.8518414E-1,1.0647402E-1,-4.1983035E-1,-1.968017E-1,3.37968E-1,-5.8618005E-2,7.958277E-1,-4.0507898E-1,1.19641125E-2,2.2254614E-3,5.378061E-1,3.8873482E-1,-2.6628852E-1,-9.044256E-1,3.3708133E-2,4.599483E-2,1.0203134E0,-7.144091E-2,-6.949649E-2,1.0076358E-2,-3.2236844E-2,5.7927305E-3,4.1458745E-2,4.3823205E-2,-1.7277597E-2,-9.869414E-3,-5.7919897E-2,1.36261685E-2,-1.6685765E-2,1.2379557E-2,-3.6385257E-2,-3.58263E-2,3.0849887E-2,5.2289635E-2,1.556516E-3,-2.6338646E-2,2.0405222E-2,-4.848634E-2,7.84937E-3,4.771277E-3,-4.4752706E-2,6.932785E-2,5.762573E-3,7.940697E-3,-3.9327234E-2],"categories":[],"categories_nodes":[],"categories_segments":[],"categories_sizes":[],"default_left":[0,0,0,0,0,0,0,0,0,0,0,0,0,0,0,0,0,0,0,0,0,0,0,0,0,0,0,0,0,0,0,0,0,0,0,0,0,0,0,0,0,0,0,0,0,0,0,0,0,0,0,0,0,0,0,0,0],"id":12,"left_children":[1,3,5,7,9,11,13,15,17,19,21,23,25,27,29,31,33,-1,35,37,39,41,43,45,47,49,-1,51,53,-1,55,-1,-1,-1,-1,-1,-1,-1,-1,-1,-1,-1,-1,-1,-1,-1,-1,-1,-1,-1,-1,-1,-1,-1,-1,-1,-1],"loss_changes":[3.901607E0,4.4227166E0,6.470228E0,5.1530514E0,5.196457E0,7.114525E0,3.7050242E0,4.802561E0,7.5174236E0,5.412696E0,5.9327E0,3.4253318E0,5.0065613E0,5.0629926E0,5.4301095E0,5.4727798E0,4.097544E0,0E0,2.4177322E0,7.3047466E0,8.092696E0,1.2377473E1,3.4124174E0,2.4600887E0,5.960023E0,1.8008423E0,0E0,4.1679425E0,1.7269073E0,0E0,2.1978457E0,0E0,0E0,0E0,0E0,0E0,0E0,0E0,0E0,0E0,0E0,0E0,0E0,0E0,0E0,0E0,0E0,0E0,0E0,0E0,0E0,0E0,0E0,0E0,0E0,0E0,0E0],"parents":[2147483647,0,0,1,1,2,2,3,3,4,4,5,5,6,6,7,7,8,8,9,9,10,10,11,11,12,12,13,13,14,14,15,15,16,16,18,18,19,19,20,20,21,21,22,22,23,23,24,24,25,25,27,27,28,28,30,30],"right_children":[2,4,6,8,10,12,14,16,18,20,22,24,26,28,30,32,34,-1,36,38,40,42,44,46,48,50,-1,52,54,-1,56,-1,-1,-1,-1,-1,-1,-1,-1,-1,-1,-1,-1,-1,-1,-1,-1,-1,-1,-1,-1,-1,-1,-1,-1,-1,-1],"split_conditions":[2.848E0,-8.880454E0,3.412E0,-6.0574675E-4,6.324154E1,-2.3797672E0,9.168544E-3,3.443082E1,9.036E1,-1.0622181E-3,1.4091253E-2,-2.7709904E1,5.8809986E0,7.340768E-3,9.173898E-3,2.8319418E1,9.754E1,-5.8618005E-2,1.4366935E-2,1.0789102E1,1.020077E-2,8.729289E-3,1.752803E1,2.434E1,-7.890792E0,7.412493E1,3.3708133E-2,6.738694E-3,4.258E0,-7.144091E-2,3.2875195E-2,1.0076358E-2,-3.2236844E-2,5.7927305E-3,4.1458745E-2,4.3823205E-2,-1.7277597E-2,-9.869414E-3,-5.7919897E-2,1.36261685E-2,-1.6685765E-2,1.2379557E-2,-3.6385257E-2,-3.58263E-2,3.0849887E-2,5.2289635E-2,1.556516E-3,-2.6338646E-2,2.0405222E-2,-4.848634E-2,7.84937E-3,4.771277E-3,-4.4752706E-2,6.932785E-2,5.762573E-3,7.940697E-3,-3.9327234E-2],"split_indices":[6,3,6,2,0,3,1,0,4,2,2,3,9,1,2,0,4,0,5,3,2,2,3,8,3,0,0,1,6,0,2,0,0,0,0,0,0,0,0,0,0,0,0,0,0,0,0,0,0,0,0,0,0,0,0,0,0],"split_type":[0,0,0,0,0,0,0,0,0,0,0,0,0,0,0,0,0,0,0,0,0,0,0,0,0,0,0,0,0,0,0,0,0,0,0,0,0,0,0,0,0,0,0,0,0,0,0,0,0,0,0,0,0,0,0,0,0],"sum_hessian":[4.9227765E2,3.2059894E2,1.7167871E2,8.960365E1,2.309953E2,6.557934E1,1.0609937E2,6.638133E1,2.3222317E1,1.3498917E2,9.6006134E1,4.1312325E1,2.426701E1,9.145672E1,1.4642657E1,2.8944414E1,3.743692E1,1.2437816E0,2.1978535E1,4.714988E1,8.783928E1,6.7103325E1,2.890281E1,9.608496E0,3.1703829E1,2.2785488E1,1.4815222E0,8.676483E1,4.691889E0,2.9804084E0,1.1662249E1,1.56117115E1,1.3332704E1,2.6630863E1,1.0806057E1,2.0745037E1,1.2334976E0,3.794926E1,9.20062E0,5.0206936E1,3.7632343E1,5.071598E1,1.638734E1,1.2384667E0,2.7664343E1,2.7081454E0,6.9003506E0,2.3028109E1,8.675719E0,2.154628E1,1.239208E0,8.328851E1,3.476319E0,2.9614863E0,1.7304022E0,9.436237E0,2.2260108E0],"tree_param":{"num_deleted":"0","num_feature":"10","num_nodes":"57","size_leaf_vector":"1"}},{"base_weights":[-1.4158416E-3,1.0085194E-1,-7.662679E-2,2.1171348E-1,-7.212009E-2,-9.198316E-2,9.1601527E-1,2.3944186E-1,-6.572424E-1,-1.6145235E-1,4.6411318E-1,-4.0049127E-1,-4.4285074E-2,5.767699E-2,1.315581E-2,1.663993E-1,6.995117E-1,6.9861757E-3,-5.1647913E-2,3.421611E-1,-3.03808E-1,7.2222435E-1,-4.1315816E-2,-5.090205E-1,7.3432285E-1,3.4627563E-1,-8.554122E-2,9.893201E-4,2.3287022E-2,-1.3863339E-2,4.5323696E-2,2.8645873E-2,-5.018217E-2,-3.209921E-2,-1.8205602E-3,-1.5894596E-2,5.3795587E-2,-9.871368E-3,-4.7469866E-2,5.0028604E-3,5.0583E-2,-1.0128132E-2,5.0288823E-2,-1.8178834E-2,-1.43844E-4],"categories":[],"categories_nodes":[],"categories_segments":[],"categories_sizes":[],"default_left":[0,0,0,0,0,0,0,0,0,0,0,0,0,0,0,0,0,0,0,0,0,0,0,0,0,0,0,0,0,0,0,0,0,0,0,0,0,0,0,0,0,0,0,0,0],"id":13,"left_children":[1,3,5,7,9,11,13,15,17,19,21,23,25,-1,-1,27,29,-1,-1,31,33,35,-1,37,39,41,43,-1,-1,-1,-1,-1,-1,-1,-1,-1,-1,-1,-1,-1,-1,-1,-1,-1,-1],"loss_changes":[3.799235E0,4.0292945E0,4.4227E0,3.2371678E0,4.027204E0,4.119961E0,3.8304925E-1,4.0707655E0,1.4078286E0,5.227488E0,4.6070404E0,4.9957423E0,3.9717772E0,0E0,0E0,4.7675204E0,3.639392E0,0E0,0E0,5.612048E0,5.062805E0,4.229327E0,0E0,4.59363E0,5.47012E-1,8.736116E0,5.103239E0,0E0,0E0,0E0,0E0,0E0,0E0,0E0,0E0,0E0,0E0,0E0,0E0,0E0,0E0,0E0,0E0,0E0,0E0],"parents":[2147483647,0,0,1,1,2,2,3,3,4,4,5,5,6,6,7,7,8,8,9,9,10,10,11,11,12,12,15,15,16,16,19,19,20,20,21,21,23,23,24,24,25,25,26,26],"right_children":[2,4,6,8,10,12,14,16,18,20,22,24,26,-1,-1,28,30,-1,-1,32,34,36,-1,38,40,42,44,-1,-1,-1,-1,-1,-1,-1,-1,-1,-1,-1,-1,-1,-1,-1,-1,-1,-1],"split_conditions":[-6.74433E-4,9.872E1,4.662E0,3.299E1,8.298125E-3,4.7143913E-4,7.993691E1,2.387E1,-2.7127575E1,-3.4042274E1,5.479958E1,4.137E0,1.142E1,5.767699E-2,1.315581E-2,4.931727E-3,-3.8605404E1,6.9861757E-3,-5.1647913E-2,4.445E0,-8.33707E-3,-2.4899998E0,-4.1315816E-2,9.827E1,-9.99999E-3,2.346E0,1.348E1,9.893201E-4,2.3287022E-2,-1.3863339E-2,4.5323696E-2,2.8645873E-2,-5.018217E-2,-3.209921E-2,-1.8205602E-3,-1.5894596E-2,5.3795587E-2,-9.871368E-3,-4.7469866E-2,5.0028604E-3,5.0583E-2,-1.0128132E-2,5.0288823E-2,-1.8178834E-2,-1.43844E-4],"split_indices":[1,4,6,8,2,1,0,8,3,3,3,6,8,0,0,5,3,0,0,6,2,9,0,4,7,6,8,0,0,0,0,0,0,0,0,0,0,0,0,0,0,0,0,0,0],"split_type":[0,0,0,0,0,0,0,0,0,0,0,0,0,0,0,0,0,0,0,0,0,0,0,0,0,0,0,0,0,0,0,0,0,0,0,0,0,0,0,0,0,0,0,0,0],"sum_hessian":[4.9193762E2,2.0832611E2,2.836115E2,1.26820274E2,8.1505844E1,2.8018436E2,3.4271734E0,1.23600624E2,3.2196467E0,7.046572E1,1.1040123E1,3.65279E1,2.4365645E2,1.9507095E0,1.4764639E0,1.07841034E2,1.5759597E1,1.2327849E0,1.9868617E0,1.5219595E1,5.5246124E1,9.566882E0,1.4732412E0,3.384276E1,2.6851408E0,2.2572775E1,2.2108368E2,7.310257E1,3.4738464E1,2.6959765E0,1.3063621E1,1.3482185E1,1.7374091E0,2.3775911E1,3.1470211E1,2.4533453E0,7.113537E0,2.066754E1,1.317522E1,1.2308909E0,1.4542501E0,1.2698174E1,9.874601E0,4.9888645E1,1.7119502E2],"tree_param":{"num_deleted":"0","num_feature":"10","num_nodes":"45","size_leaf_vector":"1"}},{"base_weights":[-1.2432059E-3,-2.5647327E-1,2.7629636E-2,-4.1987285E-1,2.3359923E-1,1.7868346E-1,-1.7998314E-2,-1.0095193E0,-2.6757556E-1,5.421389E-1,-3.55546E-1,-3.283816E-1,3.312291E-1,1.598179E-3,-6.7254597E-1,-1.8966595E-3,-6.2345315E-2,2.3030584E-1,-5.5494815E-1,3.7333418E-2,6.354868E-2,-8.4645766E-1,2.0537985E-2,7.8849006E-1,-5.6664413E-1,2.1642089E-1,8.737456E-1,-7.1684636E-2,2.0071201E-1,-1.0120863E0,3.7393123E-2,-3.558311E-2,3.60722E-2,7.240073E-4,-3.582981E-2,4.9686354E-2,-1.9125216E-2,-5.2618343E-2,-1.3031185E-2,-3.8917789E-3,6.075975E-2,-5.3934377E-2,4.589397E-3,1.608104E-2,-3.897625E-2,1.6809775E-2,6.90889E-2,-6.031273E-3,1.8290361E-2,1.5959546E-2,-2.2835827E-2,6.7206854E-3,-7.5324476E-2],"categories":[],"categories_nodes":[],"categories_segments":[],"categories_sizes":[],"default_left":[0,0,0,0,0,0,0,0,0,0,0,0,0,0,0,0,0,0,0,0,0,0,0,0,0,0,0,0,0,0,0,0,0,0,0,0,0,0,0,0,0,0,0,0,0,0,0,0,0,0,0,0,0],"id":14,"left_children":[1,3,5,7,9,11,13,15,17,19,21,23,25,27,29,-1,-1,31,33,35,-1,37,-1,39,41,43,45,47,49,51,-1,-1,-1,-1,-1,-1,-1,-1,-1,-1,-1,-1,-1,-1,-1,-1,-1,-1,-1,-1,-1,-1,-1],"loss_changes":[3.6367793E0,4.1142926E0,3.05921E0,3.1396894E0,2.5891705E0,8.07231E0,4.3806715E0,1.6671748E0,4.640047E0,3.281591E0,2.2794771E0,6.916403E0,4.771432E0,4.8662844E0,5.544837E0,0E0,0E0,6.179817E0,1.8779154E0,2.940256E0,0E0,1.4270902E-1,0E0,1.82932E0,7.0506835E0,7.276922E0,3.2443275E0,5.264041E0,7.1341114E0,4.984997E0,0E0,0E0,0E0,0E0,0E0,0E0,0E0,0E0,0E0,0E0,0E0,0E0,0E0,0E0,0E0,0E0,0E0,0E0,0E0,0E0,0E0,0E0,0E0],"parents":[2147483647,0,0,1,1,2,2,3,3,4,4,5,5,6,6,7,7,8,8,9,9,10,10,11,11,12,12,13,13,14,14,17,17,18,18,19,19,21,21,23,23,24,24,25,25,26,26,27,27,28,28,29,29],"right_children":[2,4,6,8,10,12,14,16,18,20,22,24,26,28,30,-1,-1,32,34,36,-1,38,-1,40,42,44,46,48,50,52,-1,-1,-1,-1,-1,-1,-1,-1,-1,-1,-1,-1,-1,-1,-1,-1,-1,-1,-1,-1,-1,-1,-1],"split_conditions":[-9.899998E-2,2.142807E-2,-3.2000065E-2,3.851941E1,5.7695858E1,9.336E1,3.346E1,-8.312007E-3,-6.2296295E-4,6.471155E1,1.0362E2,-1.5301204E1,1.776621E-2,2.087E1,6.7184265E1,-1.8966595E-3,-6.2345315E-2,1.732E0,-1.9099998E-1,1.462E0,6.354868E-2,-7.0260116E-3,2.0537985E-2,-6.700003E-2,4.0076105E-3,3.712554E1,2.37E0,3.267004E1,8.328108E-3,4.164471E1,3.7393123E-2,-3.558311E-2,3.60722E-2,7.240073E-4,-3.582981E-2,4.9686354E-2,-1.9125216E-2,-5.2618343E-2,-1.3031185E-2,-3.8917789E-3,6.075975E-2,-5.3934377E-2,4.589397E-3,1.608104E-2,-3.897625E-2,1.6809775E-2,6.90889E-2,-6.031273E-3,1.8290361E-2,1.5959546E-2,-2.2835827E-2,6.7206854E-3,-7.5324476E-2],"split_indices":[7,2,7,0,3,4,8,5,1,0,4,3,2,8,0,0,0,6,7,6,0,5,0,7,1,3,6,3,1,0,0,0,0,0,0,0,0,0,0,0,0,0,0,0,0,0,0,0,0,0,0,0,0],"split_type":[0,0,0,0,0,0,0,0,0,0,0,0,0,0,0,0,0,0,0,0,0,0,0,0,0,0,0,0,0,0,0,0,0,0,0,0,0,0,0,0,0,0,0,0,0,0,0,0,0,0,0,0,0],"sum_hessian":[4.9154794E2,4.9153965E1,4.4239395E2,3.6970528E1,1.2183438E1,1.01953896E2,3.4044006E2,6.433491E0,3.0537037E1,8.048282E0,4.1351566E0,2.3311909E1,7.864199E1,3.3151248E2,8.927589E0,1.4909731E0,4.9425178E0,1.1248048E1,1.9288988E1,5.3759885E0,2.6722937E0,2.4567287E0,1.6784278E0,3.692717E0,1.9619192E1,6.606098E1,1.2581006E1,2.4279355E2,8.8718925E1,7.4372306E0,1.4903585E0,3.7009265E0,7.547121E0,4.466284E0,1.4822705E1,1.2230163E0,4.1529717E0,1.2285576E0,1.228171E0,1.4884179E0,2.2042994E0,1.0677413E1,8.941779E0,6.0362114E1,5.6988697E0,6.920339E0,5.6606674E0,2.1901709E2,2.3776466E1,7.560772E1,1.3111206E1,2.4602184E0,4.977012E0],"tree_param":{"num_deleted":"0","num_feature":"10","num_nodes":"53","size_leaf_vector":"1"}},{"base_weights":[-1.1811967E-3,2.1162145E-1,-3.4851618E-2,3.2999775E-1,-4.200084E-1,4.4106856E-2,-1.8018152E-1,-1.21353455E-1,5.5789524E-1,2.1268417E-1,-8.6506015E-1,-4.9519047E-1,7.065551E-2,-3.6026353E-1,5.6230452E-2,1.8780698E-1,-7.649924E-1,2.5861144E-2,8.955272E-1,5.1296186E-2,-4.274734E-1,-1.17477E0,1.0955592E-3,-8.500512E-1,2.6107088E-1,3.6779374E-2,4.3500155E-1,-1.6724165E-1,-6.493343E-1,-5.880979E-1,1.6454722E-1,4.0371288E-2,-1.55699225E-2,-7.3845424E-2,4.993332E-3,-3.591025E-2,2.1198196E-2,4.8876E-2,-1.0036006E-2,-5.262194E-2,1.559303E-2,-1.9522218E-2,-6.991746E-2,-1.0350942E-2,-6.7734286E-2,3.613703E-2,-2.4357056E-2,3.7758462E-3,-1.8472431E-2,6.0832825E-2,5.098712E-3,1.6569575E-2,-1.8664796E-2,-9.231283E-3,-5.603317E-2,2.9918706E-2,-4.845422E-2,1.3232822E-2,-1.300254E-2],"categories":[],"categories_nodes":[],"categories_segments":[],"categories_sizes":[],"default_left":[0,0,0,0,0,0,0,0,0,0,0,0,0,0,0,0,0,0,0,0,0,0,0,0,0,0,0,0,0,0,0,0,0,0,0,0,0,0,0,0,0,0,0,0,0,0,0,0,0,0,0,0,0,0,0,0,0,0,0],"id":15,"left_children":[1,3,5,7,9,11,13,15,17,19,21,23,25,27,29,31,33,35,37,-1,39,41,-1,43,45,47,49,51,53,55,57,-1,-1,-1,-1,-1,-1,-1,-1,-1,-1,-1,-1,-1,-1,-1,-1,-1,-1,-1,-1,-1,-1,-1,-1,-1,-1,-1,-1],"loss_changes":[3.5341713E0,5.1767807E0,4.8943872E0,5.962419E0,3.3025508E0,3.997043E0,6.410834E0,4.1331143E0,6.8492727E0,3.237379E0,1.8660007E0,3.7398005E0,3.2500768E0,4.6530743E0,4.686789E0,4.6889753E0,4.274227E0,5.009237E0,2.2973042E0,0E0,2.0443277E0,3.2794285E-1,0E0,2.6909456E0,2.0624568E0,3.8549495E0,5.711675E0,5.519664E0,7.201042E0,4.9571276E0,2.4952466E0,0E0,0E0,0E0,0E0,0E0,0E0,0E0,0E0,0E0,0E0,0E0,0E0,0E0,0E0,0E0,0E0,0E0,0E0,0E0,0E0,0E0,0E0,0E0,0E0,0E0,0E0,0E0,0E0],"parents":[2147483647,0,0,1,1,2,2,3,3,4,4,5,5,6,6,7,7,8,8,9,9,10,10,11,11,12,12,13,13,14,14,15,15,16,16,17,17,18,18,20,20,21,21,23,23,24,24,25,25,26,26,27,27,28,28,29,29,30,30],"right_children":[2,4,6,8,10,12,14,16,18,20,22,24,26,28,30,32,34,36,38,-1,40,42,-1,44,46,48,50,52,54,56,58,-1,-1,-1,-1,-1,-1,-1,-1,-1,-1,-1,-1,-1,-1,-1,-1,-1,-1,-1,-1,-1,-1,-1,-1,-1,-1,-1,-1],"split_conditions":[-7.7162413E-3,3.2615001E0,2.848E0,1.394E1,-9.000063E-3,-4.9494996E0,3.775E0,-3.5331492E0,1.0999918E-2,4.1899708E1,1.6850004E-2,6.445475E1,1.246488E-2,2.4889736E-3,-3.957532E-3,1.6182596E-3,1.187E1,-2.2044997E0,4.137E0,5.1296186E-2,9.643E1,2.558E1,1.0955592E-3,1.0153498E1,-5.8715005E0,8.328108E-3,-1.8814998E0,-1.978883E-3,-1.4999986E-2,1.378E1,9.168544E-3,4.0371288E-2,-1.55699225E-2,-7.3845424E-2,4.993332E-3,-3.591025E-2,2.1198196E-2,4.8876E-2,-1.0036006E-2,-5.262194E-2,1.559303E-2,-1.9522218E-2,-6.991746E-2,-1.0350942E-2,-6.7734286E-2,3.613703E-2,-2.4357056E-2,3.7758462E-3,-1.8472431E-2,6.0832825E-2,5.098712E-3,1.6569575E-2,-1.8664796E-2,-9.231283E-3,-5.603317E-2,2.9918706E-2,-4.845422E-2,1.3232822E-2,-1.300254E-2],"split_indices":[1,9,6,8,7,9,6,3,7,0,5,0,1,2,1,5,8,9,6,0,4,8,0,3,9,1,9,5,7,8,1,0,0,0,0,0,0,0,0,0,0,0,0,0,0,0,0,0,0,0,0,0,0,0,0,0,0,0,0],"split_type":[0,0,0,0,0,0,0,0,0,0,0,0,0,0,0,0,0,0,0,0,0,0,0,0,0,0,0,0,0,0,0,0,0,0,0,0,0,0,0,0,0,0,0,0,0,0,0,0,0,0,0,0,0,0,0,0,0,0,0],"sum_hessian":[4.912149E2,6.6382355E1,4.2483255E2,5.6307148E1,1.0075206E1,2.7572583E2,1.4910674E2,1.9048697E1,3.7258453E1,4.376136E0,5.69907E0,1.2108432E1,2.6361737E2,8.433919E1,6.476754E1,1.3346267E1,5.7024293E0,1.4882882E1,2.237557E1,1.6620716E0,2.7140641E0,3.9836113E0,1.7154585E0,8.156934E0,3.9514983E0,2.4219916E2,2.1418228E1,5.1517704E1,3.2821484E1,8.683547E0,5.6083996E1,5.679452E0,7.6668143E0,2.7396095E0,2.9628196E0,4.907168E0,9.975715E0,2.091924E1,1.4563303E0,1.241293E0,1.4727712E0,1.4928752E0,2.490736E0,4.206729E0,3.950205E0,2.4647286E0,1.4867698E0,2.2185715E2,2.0342005E1,5.606285E0,1.5811942E1,1.4886183E1,3.6631523E1,1.722759E1,1.5593894E1,1.9719353E0,6.711612E0,4.5688515E1,1.0395478E1],"tree_param":{"num_deleted":"0","num_feature":"10","num_nodes":"59","size_leaf_vector":"1"}},{"base_weights":[-1.5048255E-3,-2.4581255E-1,2.6082948E-2,-4.0258142E-1,2.2477117E-1,9.750506E-2,-6.343429E-2,-9.690797E-1,-2.5640634E-1,4.7716893E-2,-2.9836366E-2,-2.769022E-2,2.2919425E-1,-5.5706626E-1,-7.477025E-4,-1.958965E-3,-5.9844494E-2,2.1808596E-1,-5.298486E-1,-6.148754E-1,5.2182937E-1,-8.872897E-2,7.367513E-1,3.064461E-1,-3.0784827E-1,-2.5674188E-1,-1.1841577E0,5.03777E-2,-6.3698786E-1,-3.401897E-2,3.438674E-2,-3.0975133E-2,1.782458E-2,-4.975743E-2,1.4179515E-2,5.4603457E-2,-1.4077652E-4,-1.0256593E-2,1.1931811E-2,2.353736E-3,6.0820352E-2,1.7004067E-2,-3.2139305E-2,-2.9063195E-2,2.548281E-2,-3.4099262E-2,1.9094147E-2,-6.7947805E-2,-1.0758147E-2,-1.0321928E-3,2.0462647E-2,-4.722735E-2,-5.4444605E-3],"categories":[],"categories_nodes":[],"categories_segments":[],"categories_sizes":[],"default_left":[0,0,0,0,0,0,0,0,0,0,0,0,0,0,0,0,0,0,0,0,0,0,0,0,0,0,0,0,0,0,0,0,0,0,0,0,0,0,0,0,0,0,0,0,0,0,0,0,0,0,0,0,0],"id":16,"left_children":[1,3,5,7,9,11,13,15,17,-1,19,21,23,25,27,-1,-1,29,31,33,35,37,39,41,43,45,47,49,51,-1,-1,-1,-1,-1,-1,-1,-1,-1,-1,-1,-1,-1,-1,-1,-1,-1,-1,-1,-1,-1,-1,-1,-1],"loss_changes":[3.3207793E0,3.7785017E0,2.8369846E0,2.8864136E0,2.4681664E0,4.0730906E0,6.0985346E0,1.5218034E0,4.196371E0,0E0,3.7761583E0,6.007259E0,5.0862355E0,3.878358E0,5.7533846E0,0E0,0E0,5.6189384E0,1.8296008E0,2.2142735E0,1.8133899E0,4.5767064E0,3.0932283E0,3.593114E0,3.7899058E0,4.6851387E0,8.7879467E-1,4.181642E0,2.0339074E0,0E0,0E0,0E0,0E0,0E0,0E0,0E0,0E0,0E0,0E0,0E0,0E0,0E0,0E0,0E0,0E0,0E0,0E0,0E0,0E0,0E0,0E0,0E0,0E0],"parents":[2147483647,0,0,1,1,2,2,3,3,4,4,5,5,6,6,7,7,8,8,10,10,11,11,12,12,13,13,14,14,17,17,18,18,19,19,20,20,21,21,22,22,23,23,24,24,25,25,26,26,27,27,28,28],"right_children":[2,4,6,8,10,12,14,16,18,-1,20,22,24,26,28,-1,-1,30,32,34,36,38,40,42,44,46,48,50,52,-1,-1,-1,-1,-1,-1,-1,-1,-1,-1,-1,-1,-1,-1,-1,-1,-1,-1,-1,-1,-1,-1,-1,-1],"split_conditions":[-9.899998E-2,2.142807E-2,2.00001E-2,3.851941E1,9.737E1,9.679E1,3.1000018E-2,-8.312007E-3,-6.2296295E-4,4.7716893E-2,2.035E1,1.29053965E-2,7.605281E1,-1.0000019E-1,8.762659E-3,-1.958965E-3,-5.9844494E-2,1.732E0,7.954552E1,-1.9228747E-3,3.712554E1,-2.9999614E-3,2.6612309E1,4.571E0,3.86E0,-1.1959996E0,1.0182E2,6.505461E1,1.3809049E-3,-3.401897E-2,3.438674E-2,-3.0975133E-2,1.782458E-2,-4.975743E-2,1.4179515E-2,5.4603457E-2,-1.4077652E-4,-1.0256593E-2,1.1931811E-2,2.353736E-3,6.0820352E-2,1.7004067E-2,-3.2139305E-2,-2.9063195E-2,2.548281E-2,-3.4099262E-2,1.9094147E-2,-6.7947805E-2,-1.0758147E-2,-1.0321928E-3,2.0462647E-2,-4.722735E-2,-5.4444605E-3],"split_indices":[7,2,7,0,4,4,7,5,1,0,8,1,0,9,1,0,0,6,0,5,3,7,3,6,6,9,4,0,5,0,0,0,0,0,0,0,0,0,0,0,0,0,0,0,0,0,0,0,0,0,0,0,0],"split_type":[0,0,0,0,0,0,0,0,0,0,0,0,0,0,0,0,0,0,0,0,0,0,0,0,0,0,0,0,0,0,0,0,0,0,0,0,0,0,0,0,0,0,0,0,0,0,0,0,0,0,0,0,0],"sum_hessian":[4.9075284E2,4.8991444E1,4.417614E2,3.6857388E1,1.2134055E1,2.4566566E2,1.9609573E2,6.405077E0,3.045231E1,2.4281185E0,9.705936E0,1.26342834E2,1.1932283E2,2.120762E1,1.7488812E2,1.4909868E0,4.91409E0,1.120727E1,1.9245043E1,4.654879E0,5.0510573E0,1.1781919E2,8.52364E0,1.0469253E2,1.4630301E1,1.529298E1,5.914641E0,1.6273248E2,1.2155632E1,3.6932228E0,7.5140467E0,1.7750607E1,1.4944352E0,3.1949966E0,1.4598824E0,1.9021068E0,3.1489508E0,8.7189995E1,3.0629198E1,3.946819E0,4.576821E0,1.0172956E2,2.9629707E0,1.1180083E1,3.4502187E0,9.1394E0,6.153581E0,4.669809E0,1.2448322E0,1.3663486E2,2.609762E1,7.1834726E0,4.9721594E0],"tree_param":{"num_deleted":"0","num_feature":"10","num_nodes":"53","size_leaf_vector":"1"}},{"base_weights":[-1.6063369E-3,9.220875E-2,-7.048649E-2,1.9886215E-1,-7.4213974E-2,-8.5118555E-2,8.793089E-1,1.7412156E-2,3.302694E-1,-1.5748279E-1,4.295583E-1,-3.7840718E-1,-3.9799083E-2,5.6258973E-2,1.1491054E-2,1.5059818E-1,-5.0289446E-1,1.7011791E-1,8.2864875E-1,3.1922165E-1,-2.9166442E-1,6.796919E-1,-4.024738E-2,-4.8258102E-1,7.131466E-1,2.5834066E-1,-8.830605E-2,5.315723E-4,4.567133E-2,3.211271E-3,-5.9482187E-2,6.0205977E-2,3.572733E-3,-1.5157065E-2,5.733284E-2,2.7004054E-2,-4.7721114E-2,1.2381608E-2,-2.2154806E-2,-1.4903423E-2,5.0688244E-2,-9.109588E-3,-4.544754E-2,4.7994778E-3,4.9182527E-2,-6.491044E-3,3.70011E-2,-3.50356E-2,-1.3968645E-3],"categories":[],"categories_nodes":[],"categories_segments":[],"categories_sizes":[],"default_left":[0,0,0,0,0,0,0,0,0,0,0,0,0,0,0,0,0,0,0,0,0,0,0,0,0,0,0,0,0,0,0,0,0,0,0,0,0,0,0,0,0,0,0,0,0,0,0,0,0],"id":17,"left_children":[1,3,5,7,9,11,13,15,17,19,21,23,25,-1,-1,27,29,31,33,35,37,39,-1,41,43,45,47,-1,-1,-1,-1,-1,-1,-1,-1,-1,-1,-1,-1,-1,-1,-1,-1,-1,-1,-1,-1,-1,-1],"loss_changes":[3.180921E0,3.7139616E0,4.019411E0,3.0292182E0,3.5127068E0,3.7124472E0,4.431696E-1,3.8537264E0,5.7468204E0,4.6479535E0,4.2271085E0,4.5988383E0,3.5518298E0,0E0,0E0,4.7070656E0,4.4936285E0,5.7377005E0,6.711462E0,5.0495234E0,4.6904063E0,3.7161598E0,0E0,4.285475E0,5.171571E-1,6.5280848E0,7.767126E0,0E0,0E0,0E0,0E0,0E0,0E0,0E0,0E0,0E0,0E0,0E0,0E0,0E0,0E0,0E0,0E0,0E0,0E0,0E0,0E0,0E0,0E0],"parents":[2147483647,0,0,1,1,2,2,3,3,4,4,5,5,6,6,7,7,8,8,9,9,10,10,11,11,12,12,15,15,16,16,17,17,18,18,19,19,20,20,21,21,23,23,24,24,25,25,26,26],"right_children":[2,4,6,8,10,12,14,16,18,20,22,24,26,-1,-1,28,30,32,34,36,38,40,-1,42,44,46,48,-1,-1,-1,-1,-1,-1,-1,-1,-1,-1,-1,-1,-1,-1,-1,-1,-1,-1,-1,-1,-1,-1],"split_conditions":[-6.74433E-4,9.872E1,4.662E0,1.732E0,8.298125E-3,4.7143913E-4,1.926E1,5.889831E-3,9.737E1,-3.4042274E1,5.479958E1,4.137E0,1.2E1,5.6258973E-2,1.1491054E-2,1.5714851E-3,9.396E1,-1.3492517E-2,-1.1519627E-2,4.445E0,-2.3054996E0,-2.4899998E0,-4.024738E-2,9.827E1,4.164471E1,2.37E0,1.267E1,5.315723E-4,4.567133E-2,3.211271E-3,-5.9482187E-2,6.0205977E-2,3.572733E-3,-1.5157065E-2,5.733284E-2,2.7004054E-2,-4.7721114E-2,1.2381608E-2,-2.2154806E-2,-1.4903423E-2,5.0688244E-2,-9.109588E-3,-4.544754E-2,4.7994778E-3,4.9182527E-2,-6.491044E-3,3.70011E-2,-3.50356E-2,-1.3968645E-3],"split_indices":[1,4,6,6,2,1,8,2,4,3,3,6,8,0,0,2,4,1,2,6,9,9,0,4,0,6,8,0,0,0,0,0,0,0,0,0,0,0,0,0,0,0,0,0,0,0,0,0,0],"split_type":[0,0,0,0,0,0,0,0,0,0,0,0,0,0,0,0,0,0,0,0,0,0,0,0,0,0,0,0,0,0,0,0,0,0,0,0,0,0,0,0,0,0,0,0,0,0,0,0,0],"sum_hessian":[4.9024463E2,2.074111E2,2.8283353E2,1.2628523E2,8.112587E1,2.7943903E2,3.3945115E0,5.3518383E1,7.2766846E1,7.0208466E1,1.0917405E1,3.6416557E1,2.4302246E2,1.9310727E0,1.4634387E0,4.3176735E1,1.034165E1,5.608544E1,1.6681406E1,1.5118443E1,5.5090023E1,9.451733E0,1.465673E0,3.3753174E1,2.6633823E0,3.340129E1,2.0962117E2,3.7339478E1,5.837256E0,6.1606464E0,4.1810036E0,3.909467E0,5.2175972E1,3.669261E0,1.3012145E1,1.3375062E1,1.7433804E0,1.1938378E1,4.315164E1,2.4344347E0,7.0172977E0,2.0639433E1,1.3113742E1,1.2245089E0,1.4388734E0,1.89007E1,1.4500591E1,1.7857727E1,1.9176344E2],"tree_param":{"num_deleted":"0","num_feature":"10","num_nodes":"49","size_leaf_vector":"1"}},{"base_weights":[-1.2580097E-3,-2.3277651E-1,2.4803769E-2,-3.8442907E-1,2.2221993E-1,1.682549E-1,-1.849808E-2,-9.331193E-1,-2.4299213E-1,4.6489913E-2,-2.5353726E-2,-3.0584964E-1,3.1134474E-1,-1.3642515E-4,-6.321534E-1,-1.9582931E-3,-5.7658143E-2,7.296741E-1,-3.6947426E-1,-5.8870715E-1,5.062351E-1,7.6875997E-1,-5.3469604E-1,3.6010933E-1,-7.7372897E-1,-1.7118691E-1,7.880404E-2,-9.5874476E-1,3.638513E-2,6.092167E-2,-1.0446972E-2,-4.0550858E-2,-7.6599414E-3,-4.783216E-2,1.3811066E-2,5.3148646E-2,-1.1407306E-4,-3.5185774E-3,5.9161123E-2,-5.0939538E-2,4.4664964E-3,8.321945E-3,2.955692E-2,-6.2572576E-2,5.3273495E-3,-1.1375558E-2,3.1595685E-2,1.9923145E-2,7.240814E-4,6.1681597E-3,-7.127217E-2],"categories":[],"categories_nodes":[],"categories_segments":[],"categories_sizes":[],"default_left":[0,0,0,0,0,0,0,0,0,0,0,0,0,0,0,0,0,0,0,0,0,0,0,0,0,0,0,0,0,0,0,0,0,0,0,0,0,0,0,0,0,0,0,0,0,0,0,0,0,0,0],"id":18,"left_children":[1,3,5,7,9,11,13,15,17,-1,19,21,23,25,27,-1,-1,29,31,33,35,37,39,41,43,45,47,49,-1,-1,-1,-1,-1,-1,-1,-1,-1,-1,-1,-1,-1,-1,-1,-1,-1,-1,-1,-1,-1,-1,-1],"loss_changes":[2.967063E0,3.51849E0,2.7488778E0,2.6975927E0,2.3133717E0,7.054984E0,3.835896E0,1.4047017E0,4.1217046E0,0E0,3.489407E0,6.384261E0,4.474765E0,4.4903364E0,5.0901785E0,0E0,0E0,2.0617397E0,2.5851681E0,2.0578709E0,1.7069135E0,1.7090504E0,6.318407E0,3.3278027E0,1.701179E0,4.893778E0,4.672725E0,4.4213142E0,0E0,0E0,0E0,0E0,0E0,0E0,0E0,0E0,0E0,0E0,0E0,0E0,0E0,0E0,0E0,0E0,0E0,0E0,0E0,0E0,0E0,0E0,0E0],"parents":[2147483647,0,0,1,1,2,2,3,3,4,4,5,5,6,6,7,7,8,8,10,10,11,11,12,12,13,13,14,14,17,17,18,18,19,19,20,20,21,21,22,22,23,23,24,24,25,25,26,26,27,27],"right_children":[2,4,6,8,10,12,14,16,18,-1,20,22,24,26,28,-1,-1,30,32,34,36,38,40,42,44,46,48,50,-1,-1,-1,-1,-1,-1,-1,-1,-1,-1,-1,-1,-1,-1,-1,-1,-1,-1,-1,-1,-1,-1,-1],"split_conditions":[-9.899998E-2,2.142807E-2,-3.2000065E-2,3.851941E1,9.737E1,9.336E1,3.346E1,-8.312007E-3,-9.251513E0,4.6489913E-2,2.035E1,-1.5301204E1,4.571E0,1.348E1,6.7184265E1,-1.9582931E-3,-5.7658143E-2,-4.7134236E-3,1.818E0,-1.9228747E-3,3.712554E1,-6.700003E-2,4.0076105E-3,9.806E1,4.628E0,3.267004E1,-7.7162413E-3,4.164471E1,3.638513E-2,6.092167E-2,-1.0446972E-2,-4.0550858E-2,-7.6599414E-3,-4.783216E-2,1.3811066E-2,5.3148646E-2,-1.1407306E-4,-3.5185774E-3,5.9161123E-2,-5.0939538E-2,4.4664964E-3,8.321945E-3,2.955692E-2,-6.2572576E-2,5.3273495E-3,-1.1375558E-2,3.1595685E-2,1.9923145E-2,7.240814E-4,6.1681597E-3,-7.127217E-2],"split_indices":[7,2,7,0,4,4,8,5,3,0,8,3,6,8,0,0,0,5,6,5,3,7,1,4,6,3,1,0,0,0,0,0,0,0,0,0,0,0,0,0,0,0,0,0,0,0,0,0,0,0,0],"split_type":[0,0,0,0,0,0,0,0,0,0,0,0,0,0,0,0,0,0,0,0,0,0,0,0,0,0,0,0,0,0,0,0,0,0,0,0,0,0,0,0,0,0,0,0,0,0,0,0,0,0,0],"sum_hessian":[4.897848E2,4.875353E1,4.4103125E2,3.6682247E1,1.2071281E1,1.015915E2,3.3943976E2,6.3706274E0,3.031162E1,2.4145966E0,9.656685E0,2.328918E1,7.830232E1,3.3054935E2,8.8904E0,1.4910494E0,4.8795776E0,2.939263E0,2.7372358E1,4.6361055E0,5.0205793E0,3.6746395E0,1.961454E1,7.557405E1,2.7282698E0,1.0400966E2,2.2653969E2,7.406561E0,1.483839E0,1.7367659E0,1.2024972E0,8.095285E0,1.9277073E1,3.1781144E0,1.4579909E0,1.8761637E0,3.1444154E0,1.4893905E0,2.185249E0,1.06894655E1,8.925075E0,4.204684E1,3.3527214E1,1.4951818E0,1.233088E0,9.786291E1,6.1467576E0,3.7078472E1,1.8946121E2,2.453481E0,4.95308E0],"tree_param":{"num_deleted":"0","num_feature":"10","num_nodes":"51","size_leaf_vector":"1"}},{"base_weights":[-1.1687856E-3,5.564945E-2,-1.0706257E-1,2.2320369E-1,-9.881945E-3,-3.3235368E-1,3.3957414E-2,8.260778E-2,6.054188E-1,-5.4309213E-1,2.7292896E-2,-8.104709E-2,-7.090392E-1,1.2742594E-1,-2.9964608E-1,-1.9635557E-1,2.9906112E-1,-4.824826E-2,7.7130246E-1,-1.1604881E0,4.7167376E-1,1.0632896E0,-1.0322498E-2,-2.3035869E-1,5.218989E-1,-8.1460214E-1,3.20528E-2,2.3128158E-1,-3.834083E-1,-5.7062066E-1,4.821772E-1,2.7810448E-4,-5.258579E-2,4.5036213E-3,3.831854E-2,2.6851673E-2,7.2275184E-2,6.7971926E-4,-8.094736E-2,6.340527E-2,-1.7132249E-2,7.23163E-2,4.4434485E-3,-7.0328186E-3,7.3551745E-3,1.7796112E-2,-2.3872355E-2,4.8558693E-2,-3.1127656E-2,-7.413968E-2,-3.0928377E-2,1.7017376E-2,-2.2630444E-2,-3.0035853E-2,2.9352978E-2,4.8023765E-3,-4.232682E-2,5.5664897E-2,-2.6561959E-2],"categories":[],"categories_nodes":[],"categories_segments":[],"categories_sizes":[],"default_left":[0,0,0,0,0,0,0,0,0,0,0,0,0,0,0,0,0,0,0,0,0,0,0,0,0,0,0,0,0,0,0,0,0,0,0,0,0,0,0,0,0,0,0,0,0,0,0,0,0,0,0,0,0,0,0,0,0,0,0],"id":19,"left_children":[1,3,5,7,9,11,13,15,17,19,21,23,25,27,29,31,33,-1,35,37,39,41,43,45,47,49,-1,51,53,55,57,-1,-1,-1,-1,-1,-1,-1,-1,-1,-1,-1,-1,-1,-1,-1,-1,-1,-1,-1,-1,-1,-1,-1,-1,-1,-1,-1,-1],"loss_changes":[2.9562485E0,3.5134153E0,5.4621587E0,4.783593E0,4.590389E0,6.2038236E0,3.3567414E0,4.099329E0,7.004388E0,1.0002927E1,8.457221E0,3.793592E0,4.2761164E0,4.536453E0,5.2729855E0,5.1596527E0,3.649606E0,0E0,2.7444334E0,5.2283497E0,4.5981855E0,2.7093458E0,4.3322673E0,5.0080805E0,4.926237E0,2.3404522E0,0E0,5.397325E0,3.419213E0,3.3880725E0,4.821643E0,0E0,0E0,0E0,0E0,0E0,0E0,0E0,0E0,0E0,0E0,0E0,0E0,0E0,0E0,0E0,0E0,0E0,0E0,0E0,0E0,0E0,0E0,0E0,0E0,0E0,0E0,0E0,0E0],"parents":[2147483647,0,0,1,1,2,2,3,3,4,4,5,5,6,6,7,7,8,8,9,9,10,10,11,11,12,12,13,13,14,14,15,15,16,16,18,18,19,19,20,20,21,21,22,22,23,23,24,24,25,25,27,27,28,28,29,29,30,30],"right_children":[2,4,6,8,10,12,14,16,18,20,22,24,26,28,30,32,34,-1,36,38,40,42,44,46,48,50,-1,52,54,56,58,-1,-1,-1,-1,-1,-1,-1,-1,-1,-1,-1,-1,-1,-1,-1,-1,-1,-1,-1,-1,-1,-1,-1,-1,-1,-1,-1,-1],"split_conditions":[2.848E0,-8.880454E0,3.412E0,-6.0574675E-4,-6.3222504E0,-2.855645E0,1.1625001E0,3.443082E1,9.078E1,-1.0091256E-3,-5.202447E0,-7.890792E0,5.8809986E0,7.251864E1,6.2731182E1,-2.046191E1,9.754E1,-4.824826E-2,4.0974506E1,1.568E0,6.3011413E-3,1.84E1,6.324154E1,-2.7709904E1,2.0355245E-3,-2.7979994E0,3.20528E-2,8.969863E-3,2.559533E-2,-3.521122E1,4.6860487E-3,2.7810448E-4,-5.258579E-2,4.5036213E-3,3.831854E-2,2.6851673E-2,7.2275184E-2,6.7971926E-4,-8.094736E-2,6.340527E-2,-1.7132249E-2,7.23163E-2,4.4434485E-3,-7.0328186E-3,7.3551745E-3,1.7796112E-2,-2.3872355E-2,4.8558693E-2,-3.1127656E-2,-7.413968E-2,-3.0928377E-2,1.7017376E-2,-2.2630444E-2,-3.0035853E-2,2.9352978E-2,4.8023765E-3,-4.232682E-2,5.5664897E-2,-2.6561959E-2],"split_indices":[6,3,6,2,3,3,9,0,4,2,3,3,9,0,0,3,4,0,0,6,2,8,0,3,1,9,0,1,2,3,1,0,0,0,0,0,0,0,0,0,0,0,0,0,0,0,0,0,0,0,0,0,0,0,0,0,0,0,0],"split_type":[0,0,0,0,0,0,0,0,0,0,0,0,0,0,0,0,0,0,0,0,0,0,0,0,0,0,0,0,0,0,0,0,0,0,0,0,0,0,0,0,0,0,0,0,0,0,0,0,0,0,0,0,0,0,0,0,0,0,0],"sum_hessian":[4.8935046E2,3.187805E2,1.7056998E2,8.8947815E1,2.2983267E2,6.5142555E1,1.0542742E2,6.591679E1,2.3031029E1,1.4092368E1,2.1574031E2,3.9803032E1,2.5339525E1,8.283646E1,2.2590965E1,2.8840384E1,3.7076405E1,1.7401636E0,2.1290865E1,8.672382E0,5.419986E0,6.6033926E0,2.0913692E2,3.2398033E1,7.405E0,2.3869797E1,1.4697285E0,6.929552E1,1.3540942E1,1.6976995E1,5.6139693E0,2.4136242E1,4.7041407E0,2.6443277E1,1.0633128E1,1.7133816E1,4.15705E0,2.707923E0,5.9644594E0,2.4583633E0,2.9616222E0,4.3924613E0,2.2109315E0,1.1447168E2,9.466523E1,9.475204E0,2.2922829E1,5.42624E0,1.9787598E0,3.9255333E0,1.9944263E1,6.019762E1,9.097898E0,1.13748665E1,2.1660762E0,5.1603765E0,1.1816618E1,3.398772E0,2.2151973E0],"tree_param":{"num_deleted":"0","num_feature":"10","num_nodes":"59","size_leaf_vector":"1"}},{"base_weights":[-1.0791573E-3,8.666733E-2,-6.538959E-2,1.9144818E-1,-7.694683E-2,-7.9501614E-2,8.5363865E-1,1.7155936E-2,3.1791312E-1,-1.5623681E-1,4.0608093E-1,-3.5807353E-1,-3.6520693E-2,5.5071216E-2,1.0601014E-2,2.0614122E-1,-3.2412973E-1,1.699554E-1,7.822999E-1,2.8823E-1,-2.8058365E-1,6.500235E-1,-3.9325055E-2,-4.5853987E-1,6.969662E-1,2.472887E-1,-8.265262E-2,-2.827755E-2,1.9692576E-2,-1.7210039E-3,-5.6587335E-2,5.783998E-2,3.8187765E-3,-1.5342605E-2,5.465523E-2,2.512925E-2,-4.6535883E-2,-2.9444361E-2,-1.844834E-3,-1.3999338E-2,4.8440214E-2,-8.467054E-3,-4.354189E-2,4.8648887E-3,4.7915336E-2,-6.1853593E-3,3.548443E-2,-3.3033635E-2,-1.2869951E-3],"categories":[],"categories_nodes":[],"categories_segments":[],"categories_sizes":[],"default_left":[0,0,0,0,0,0,0,0,0,0,0,0,0,0,0,0,0,0,0,0,0,0,0,0,0,0,0,0,0,0,0,0,0,0,0,0,0,0,0,0,0,0,0,0,0,0,0,0,0],"id":20,"left_children":[1,3,5,7,9,11,13,15,17,19,21,23,25,-1,-1,27,29,31,33,35,37,39,-1,41,43,45,47,-1,-1,-1,-1,-1,-1,-1,-1,-1,-1,-1,-1,-1,-1,-1,-1,-1,-1,-1,-1,-1,-1],"loss_changes":[2.7701476E0,3.5741649E0,3.7416935E0,2.7906637E0,3.1951518E0,3.338254E0,4.6109748E-1,3.575381E0,4.914232E0,4.002781E0,3.946385E0,4.273223E0,3.2098281E0,0E0,0E0,5.382779E0,4.5880947E0,5.174175E0,6.2497473E0,4.649933E0,4.182191E0,3.3397574E0,0E0,3.985249E0,4.7719502E-1,5.973701E0,6.9008603E0,0E0,0E0,0E0,0E0,0E0,0E0,0E0,0E0,0E0,0E0,0E0,0E0,0E0,0E0,0E0,0E0,0E0,0E0,0E0,0E0,0E0,0E0],"parents":[2147483647,0,0,1,1,2,2,3,3,4,4,5,5,6,6,7,7,8,8,9,9,10,10,11,11,12,12,15,15,16,16,17,17,18,18,19,19,20,20,21,21,23,23,24,24,25,25,26,26],"right_children":[2,4,6,8,10,12,14,16,18,20,22,24,26,-1,-1,28,30,32,34,36,38,40,-1,42,44,46,48,-1,-1,-1,-1,-1,-1,-1,-1,-1,-1,-1,-1,-1,-1,-1,-1,-1,-1,-1,-1,-1,-1],"split_conditions":[-6.74433E-4,9.872E1,4.662E0,1.732E0,8.298125E-3,4.7143913E-4,7.993691E1,9.478E1,9.737E1,-3.4042274E1,5.479958E1,4.137E0,1.2E1,5.5071216E-2,1.0601014E-2,9.065E1,5.357755E-3,-1.3492517E-2,-1.1519627E-2,4.445E0,-8.33707E-3,-2.4899998E0,-3.9325055E-2,9.827E1,-9.99999E-3,2.37E0,1.267E1,-2.827755E-2,1.9692576E-2,-1.7210039E-3,-5.6587335E-2,5.783998E-2,3.8187765E-3,-1.5342605E-2,5.465523E-2,2.512925E-2,-4.6535883E-2,-2.9444361E-2,-1.844834E-3,-1.3999338E-2,4.8440214E-2,-8.467054E-3,-4.354189E-2,4.8648887E-3,4.7915336E-2,-6.1853593E-3,3.548443E-2,-3.3033635E-2,-1.2869951E-3],"split_indices":[1,4,6,6,2,1,0,4,4,3,3,6,8,0,0,4,2,1,2,6,2,9,0,4,7,6,8,0,0,0,0,0,0,0,0,0,0,0,0,0,0,0,0,0,0,0,0,0,0],"split_type":[0,0,0,0,0,0,0,0,0,0,0,0,0,0,0,0,0,0,0,0,0,0,0,0,0,0,0,0,0,0,0,0,0,0,0,0,0,0,0,0,0,0,0,0,0,0,0,0,0],"sum_hessian":[4.8889432E2,2.0662425E2,2.8227005E2,1.2585487E2,8.076939E1,2.789009E2,3.3691347E0,5.339806E1,7.245681E1,6.996159E1,1.0807789E1,3.6299866E1,2.4260104E2,1.9135203E0,1.4556143E0,3.462218E1,1.8775879E1,5.598536E1,1.6471453E1,1.5006003E1,5.4955593E1,9.350159E0,1.4576304E0,3.3659973E1,2.6398957E0,3.3310463E1,2.0929059E2,6.380116E0,2.8242065E1,1.4586135E1,4.189743E0,3.865041E0,5.2120316E1,3.6596549E0,1.2811797E1,1.3261606E1,1.7443968E0,2.3635843E1,3.131975E1,2.4178941E0,6.932265E0,2.0612463E1,1.3047509E1,1.2178155E0,1.4220802E0,1.888832E1,1.442214E1,1.7809029E1,1.9148155E2],"tree_param":{"num_deleted":"0","num_feature":"10","num_nodes":"49","size_leaf_vector":"1"}},{"base_weights":[-9.29736E-4,-2.1854845E-1,2.349513E-2,-3.6616376E-1,2.244774E-1,4.067731E-1,7.750594E-3,-9.018197E-1,-2.2849156E-1,4.933095E-1,-3.5692242E-1,-7.5625706E-1,7.4900544E-1,1.7177405E-2,-6.333953E-1,-8.927263E-3,-5.9254814E-2,4.5780316E-1,-3.9604202E-1,6.1722524E-2,1.3887061E-2,-4.568447E-2,1.3897161E-2,-5.840853E-2,8.832093E-3,2.730127E-1,6.729793E-2,2.6910699E-3,5.638527E-1,1.1462107E-1,-5.7874095E-2,4.6366416E-2,-2.9206797E-2,-3.3220336E-2,1.8900841E-3,-3.041478E-2,4.170766E-2,-3.6740515E-2,3.0477507E-2,1.5101476E-3,-2.605773E-2,5.2196987E-2,-2.223824E-2,-1.6907116E-2,2.5894895E-2],"categories":[],"categories_nodes":[],"categories_segments":[],"categories_sizes":[],"default_left":[0,0,0,0,0,0,0,0,0,0,0,0,0,0,0,0,0,0,0,0,0,0,0,0,0,0,0,0,0,0,0,0,0,0,0,0,0,0,0,0,0,0,0,0,0],"id":21,"left_children":[1,3,5,7,9,11,13,15,17,19,21,23,25,27,29,-1,-1,31,33,-1,35,-1,-1,-1,-1,37,-1,39,41,43,-1,-1,-1,-1,-1,-1,-1,-1,-1,-1,-1,-1,-1,-1,-1],"loss_changes":[2.6060646E0,3.3177762E0,2.6571867E0,2.558683E0,2.20563E0,7.482402E0,2.5764015E0,1.2894421E0,3.7648735E0,3.287036E0,1.9102972E0,1.9156225E0,3.5899887E0,3.3190525E0,2.5542443E0,0E0,0E0,3.7603593E0,3.0039544E0,0E0,3.9053323E0,0E0,0E0,0E0,0E0,3.5015566E0,0E0,5.917163E0,5.7033157E0,8.059239E-1,0E0,0E0,0E0,0E0,0E0,0E0,0E0,0E0,0E0,0E0,0E0,0E0,0E0,0E0,0E0],"parents":[2147483647,0,0,1,1,2,2,3,3,4,4,5,5,6,6,7,7,8,8,9,9,10,10,11,11,12,12,13,13,14,14,17,17,18,18,20,20,25,25,27,27,28,28,29,29],"right_children":[2,4,6,8,10,12,14,16,18,20,22,24,26,28,30,-1,-1,32,34,-1,36,-1,-1,-1,-1,38,-1,40,42,44,-1,-1,-1,-1,-1,-1,-1,-1,-1,-1,-1,-1,-1,-1,-1],"split_conditions":[-9.899998E-2,2.142807E-2,-7.8999996E-2,3.851941E1,1.5858227E-2,-1.7040005E0,9.4845E0,-5.2620154E-3,-4.383904E0,9.782E1,1.0197E2,3.194758E-4,2.2576492E1,5.566E0,4.1564583E1,-8.927263E-3,-5.9254814E-2,4.931727E-3,3.412E0,6.1722524E-2,2.177E1,-4.568447E-2,1.3897161E-2,-5.840853E-2,8.832093E-3,-9.40001E-2,6.729793E-2,3.3590007E0,9.72E1,3.527509E1,-5.7874095E-2,4.6366416E-2,-2.9206797E-2,-3.3220336E-2,1.8900841E-3,-3.041478E-2,4.170766E-2,-3.6740515E-2,3.0477507E-2,1.5101476E-3,-2.605773E-2,5.2196987E-2,-2.223824E-2,-1.6907116E-2,2.5894895E-2],"split_indices":[7,2,7,0,1,9,9,5,3,4,4,5,3,9,0,0,0,5,6,0,8,0,0,0,0,7,0,9,4,0,0,0,0,0,0,0,0,0,0,0,0,0,0,0,0],"split_type":[0,0,0,0,0,0,0,0,0,0,0,0,0,0,0,0,0,0,0,0,0,0,0,0,0,0,0,0,0,0,0,0,0,0,0,0,0,0,0,0,0,0,0,0,0],"sum_hessian":[4.883282E2,4.847568E1,4.398525E2,3.6490585E1,1.1985097E1,1.637563E1,4.2347687E2,6.3261743E0,3.016441E1,8.299174E0,3.685922E0,3.4480667E0,1.2927564E1,4.182998E2,5.1770806E0,2.2392092E0,4.086965E0,5.5792403E0,2.4585169E1,2.6412249E0,5.65795E0,1.7297623E0,1.9561595E0,2.2169828E0,1.2310838E0,8.003306E0,4.924257E0,4.084804E2,9.819388E0,2.4547572E0,2.7223232E0,3.9219186E0,1.6573218E0,1.4861054E1,9.724114E0,3.3644142E0,2.2935355E0,1.7072353E0,6.2960715E0,3.889932E2,1.9487213E1,6.6290426E0,3.190346E0,1.2325137E0,1.2222437E0],"tree_param":{"num_deleted":"0","num_feature":"10","num_nodes":"45","size_leaf_vector":"1"}},{"base_weights":[-1.0273445E-3,8.3150886E-2,-6.264635E-2,1.8263331E-1,-7.2141856E-2,-7.6335E-2,8.323607E-1,1.5796341E-2,3.038901E-1,1.8999843E-1,-2.1568905E-1,-3.4099337E-1,-3.5557237E-2,5.3718474E-2,1.038862E-2,1.9582552E-1,-3.087239E-1,1.6213217E-1,7.5213754E-1,-5.6579876E-1,3.915931E-1,1.6823082E-1,-4.303063E-1,-4.3844914E-1,6.839447E-1,-6.257485E-1,-1.30653195E-2,-2.7081043E-2,1.8804094E-2,-1.5128403E-3,-5.4257195E-2,5.5989888E-2,3.604465E-3,-2.0824585E-2,5.098736E-2,8.303328E-3,-5.937174E-2,-1.4015068E-2,3.3831906E-2,2.0363467E-2,-1.8231982E-2,-3.0326618E-2,1.3209905E-2,-8.062852E-3,-4.1758653E-2,5.0921775E-3,4.679347E-2,1.539066E-2,-5.4070294E-2,3.510587E-3,-9.050747E-3],"categories":[],"categories_nodes":[],"categories_segments":[],"categories_sizes":[],"default_left":[0,0,0,0,0,0,0,0,0,0,0,0,0,0,0,0,0,0,0,0,0,0,0,0,0,0,0,0,0,0,0,0,0,0,0,0,0,0,0,0,0,0,0,0,0,0,0,0,0,0,0],"id":22,"left_children":[1,3,5,7,9,11,13,15,17,19,21,23,25,-1,-1,27,29,31,33,35,37,39,41,43,45,47,49,-1,-1,-1,-1,-1,-1,-1,-1,-1,-1,-1,-1,-1,-1,-1,-1,-1,-1,-1,-1,-1,-1,-1,-1],"loss_changes":[2.5418737E0,3.212906E0,3.5298088E0,2.5548544E0,3.1111772E0,3.005169E0,4.337058E-1,3.233368E0,4.5305004E0,4.701277E0,4.4549327E0,4.0165987E0,3.2224743E0,0E0,0E0,4.9283915E0,4.2407837E0,4.8258877E0,5.8403416E0,3.199863E0,4.7480955E0,2.6693964E0,4.370211E0,3.6689324E0,4.3576384E-1,4.1243157E0,3.305922E0,0E0,0E0,0E0,0E0,0E0,0E0,0E0,0E0,0E0,0E0,0E0,0E0,0E0,0E0,0E0,0E0,0E0,0E0,0E0,0E0,0E0,0E0,0E0,0E0],"parents":[2147483647,0,0,1,1,2,2,3,3,4,4,5,5,6,6,7,7,8,8,9,9,10,10,11,11,12,12,15,15,16,16,17,17,18,18,19,19,20,20,21,21,22,22,23,23,24,24,25,25,26,26],"right_children":[2,4,6,8,10,12,14,16,18,20,22,24,26,-1,-1,28,30,32,34,36,38,40,42,44,46,48,50,-1,-1,-1,-1,-1,-1,-1,-1,-1,-1,-1,-1,-1,-1,-1,-1,-1,-1,-1,-1,-1,-1,-1,-1],"split_conditions":[-6.74433E-4,9.872E1,4.662E0,1.732E0,-1.2256335E-3,4.7143913E-4,7.993691E1,9.478E1,9.737E1,2.389E0,-7.988999E-3,4.137E0,-4.734499E0,5.3718474E-2,1.038862E-2,9.065E1,5.357755E-3,-1.3492517E-2,-1.2999386E-2,-7.485945E-3,-8.200761E-3,4.015E0,4.226E0,9.827E1,-9.99999E-3,-6.2055E0,2.838E0,-2.7081043E-2,1.8804094E-2,-1.5128403E-3,-5.4257195E-2,5.5989888E-2,3.604465E-3,-2.0824585E-2,5.098736E-2,8.303328E-3,-5.937174E-2,-1.4015068E-2,3.3831906E-2,2.0363467E-2,-1.8231982E-2,-3.0326618E-2,1.3209905E-2,-8.062852E-3,-4.1758653E-2,5.0921775E-3,4.679347E-2,1.539066E-2,-5.4070294E-2,3.510587E-3,-9.050747E-3],"split_indices":[1,4,6,6,5,1,0,4,4,6,1,6,9,0,0,4,2,1,2,5,5,6,6,4,7,9,6,0,0,0,0,0,0,0,0,0,0,0,0,0,0,0,0,0,0,0,0,0,0,0,0],"split_type":[0,0,0,0,0,0,0,0,0,0,0,0,0,0,0,0,0,0,0,0,0,0,0,0,0,0,0,0,0,0,0,0,0,0,0,0,0,0,0,0,0,0,0,0,0,0,0,0,0,0,0],"sum_hessian":[4.8804474E2,2.0611707E2,2.8192767E2,1.2552693E2,8.059014E1,2.785816E2,3.3460455E0,5.3309193E1,7.2217735E1,2.8401264E1,5.2188877E1,3.62096E1,2.4237201E2,1.8925976E0,1.4534479E0,3.454291E1,1.876628E1,5.5900837E1,1.63169E1,5.5999417E0,2.2801323E1,1.8790848E1,3.339803E1,3.3588108E1,2.6214912E0,7.9129877E0,2.3445903E2,6.3911924E0,2.815172E1,1.4577097E1,4.1891823E0,3.8214037E0,5.2079433E1,2.9366121E0,1.3380287E1,2.908527E0,2.6914148E0,6.796822E0,1.60045E1,1.3134565E1,5.6562824E0,2.6739677E1,6.6583524E0,2.0600767E1,1.2987342E1,1.2160133E0,1.4054779E0,2.7018454E0,5.211142E0,1.5712918E2,7.732984E1],"tree_param":{"num_deleted":"0","num_feature":"10","num_nodes":"51","size_leaf_vector":"1"}},{"base_weights":[-9.579167E-4,8.59635E-3,-5.055854E-1,-6.3734367E-3,4.399989E-1,2.502186E-2,-7.239774E-1,1.8786512E-2,-4.0790385E-1,7.72537E-1,-7.7912915E-1,1.0390897E-2,-1.0208261E0,2.8505555E-1,-1.9299978E-2,-8.8235475E-2,-8.19801E-1,-8.369124E-2,1.047727E0,-5.4493647E-2,-1.1828711E-2,-6.7935996E-2,-3.6328003E-1,4.918166E-4,2.9837994E-2,-2.4932245E-2,-9.382023E-5,-3.250664E-2,2.799998E-2,-4.8967287E-2,4.0358524E-3,-3.0342354E-2,2.7100384E-2,5.7995033E-2,6.885664E-3,4.8354194E-3,-3.2954838E-2],"categories":[],"categories_nodes":[],"categories_segments":[],"categories_sizes":[],"default_left":[0,0,0,0,0,0,0,0,0,0,0,0,0,0,0,0,0,0,0,0,0,0,0,0,0,0,0,0,0,0,0,0,0,0,0,0,0],"id":23,"left_children":[1,3,5,7,9,-1,11,13,15,17,19,-1,21,23,25,27,29,31,33,-1,-1,-1,35,-1,-1,-1,-1,-1,-1,-1,-1,-1,-1,-1,-1,-1,-1],"loss_changes":[2.3596268E0,3.1053398E0,2.3603206E0,4.7082615E0,7.139415E0,0E0,2.3919535E0,4.4555964E0,3.545982E0,3.1913447E0,4.0875816E-1,0E0,8.718786E-1,4.710309E0,3.2131748E0,6.4078875E0,1.786921E0,1.6807562E0,8.6537075E-1,0E0,0E0,0E0,5.333363E-1,0E0,0E0,0E0,0E0,0E0,0E0,0E0,0E0,0E0,0E0,0E0,0E0,0E0,0E0],"parents":[2147483647,0,0,1,1,2,2,3,3,4,4,6,6,7,7,8,8,9,9,10,10,12,12,13,13,14,14,15,15,16,16,17,17,18,18,22,22],"right_children":[2,4,6,8,10,-1,12,14,16,18,20,-1,22,24,26,28,30,32,34,-1,-1,-1,36,-1,-1,-1,-1,-1,-1,-1,-1,-1,-1,-1,-1,-1,-1],"split_conditions":[1.029E1,5.566E0,-7.9403854E1,3.2615001E0,9.168544E-3,2.502186E-2,-1.1348297E-2,-7.815031E-3,6.9999695E-3,-7.111252E-3,1.6300457E-2,1.0390897E-2,1.484E0,3.999996E-2,-4.9494996E0,2.48E1,1.4999998E-1,7.8225007E0,9.4845E0,-5.4493647E-2,-1.1828711E-2,-6.7935996E-2,-9.000063E-3,4.918166E-4,2.9837994E-2,-2.4932245E-2,-9.382023E-5,-3.250664E-2,2.799998E-2,-4.8967287E-2,4.0358524E-3,-3.0342354E-2,2.7100384E-2,5.7995033E-2,6.885664E-3,4.8354194E-3,-3.2954838E-2],"split_indices":[9,9,3,9,1,0,5,1,7,1,2,0,6,7,9,8,7,9,9,0,0,0,7,0,0,0,0,0,0,0,0,0,0,0,0,0,0],"split_type":[0,0,0,0,0,0,0,0,0,0,0,0,0,0,0,0,0,0,0,0,0,0,0,0,0,0,0,0,0,0,0,0,0,0,0,0,0],"sum_hessian":[4.8751108E2,4.7941708E2,8.0939865E0,4.6429126E2,1.5125809E1,1.2133284E0,6.8806577E0,4.378112E2,2.6480093E1,1.2172006E1,2.9538033E0,1.7348759E0,5.145782E0,5.3975437E1,3.8383575E2,1.5592871E1,1.0887221E1,3.1297996E0,9.042206E0,1.2367094E0,1.7170938E0,2.6947033E0,2.4510787E0,2.9213205E1,2.4762232E1,1.2493887E1,3.7134186E2,8.3511095E0,7.2417617E0,9.174279E0,1.7129426E0,1.7209871E0,1.4088125E0,7.805461E0,1.2367448E0,1.2227736E0,1.2283051E0],"tree_param":{"num_deleted":"0","num_feature":"10","num_nodes":"37","size_leaf_vector":"1"}},{"base_weights":[-1.1284971E-3,4.9334947E-2,-9.523847E-2,-1.7382397E-1,9.0656124E-2,-4.562647E-1,-1.3477887E-2,-7.4301225E-1,1.2585903E-2,3.7673843E-1,1.0025406E-2,4.5638275E-1,-6.565109E-1,5.517827E-2,-4.6263987E-1,2.110665E-1,-1.1375136E0,2.8126612E-1,-5.0777733E-1,-5.712963E-2,4.6357524E-1,-6.163492E-1,3.8124256E-2,4.654863E-2,-8.417884E-2,-3.7200123E-1,-9.6504843E-1,1.1281602E-2,7.6510227E-1,-8.6574024E-1,3.0351952E-1,3.9392475E-2,-1.7120896E-2,-6.5630585E-2,-1.29508E-2,-1.5475681E-3,5.11553E-2,-6.079629E-2,4.0470106E-3,8.00145E-3,3.5690658E-2,-6.887383E-2,2.495383E-2,4.997589E-2,3.708816E-4,-3.5082154E-2,2.2086157E-2,1.1724017E-2,-3.918399E-2,-5.9457093E-2,1.1595136E-2,-1.6897944E-3,2.9914616E-2,5.183905E-2,-1.4443176E-2,-6.691547E-2,-1.9359795E-2,2.8582547E-2,-2.1854816E-2],"categories":[],"categories_nodes":[],"categories_segments":[],"categories_sizes":[],"default_left":[0,0,0,0,0,0,0,0,0,0,0,0,0,0,0,0,0,0,0,0,0,0,0,0,0,0,0,0,0,0,0,0,0,0,0,0,0,0,0,0,0,0,0,0,0,0,0,0,0,0,0,0,0,0,0,0,0,0,0],"id":24,"left_children":[1,3,5,7,9,11,13,15,17,19,21,23,25,27,29,31,33,35,37,-1,39,41,43,-1,45,47,49,51,53,55,57,-1,-1,-1,-1,-1,-1,-1,-1,-1,-1,-1,-1,-1,-1,-1,-1,-1,-1,-1,-1,-1,-1,-1,-1,-1,-1,-1,-1],"loss_changes":[2.3234239E0,2.9525294E0,5.034386E0,5.325158E0,6.210017E0,6.0565524E0,4.3508935E0,4.8985267E0,5.5568733E0,8.340475E0,3.7403097E0,1.6838202E0,1.9446602E0,3.8106973E0,6.0391555E0,1.6948876E0,1.0309916E0,6.095699E0,5.7442865E0,0E0,4.193617E0,8.434292E0,5.986937E0,0E0,1.5577619E0,3.9988964E0,3.484478E0,3.1012468E0,2.3387713E0,2.312046E0,1.6773629E0,0E0,0E0,0E0,0E0,0E0,0E0,0E0,0E0,0E0,0E0,0E0,0E0,0E0,0E0,0E0,0E0,0E0,0E0,0E0,0E0,0E0,0E0,0E0,0E0,0E0,0E0,0E0,0E0],"parents":[2147483647,0,0,1,1,2,2,3,3,4,4,5,5,6,6,7,7,8,8,9,9,10,10,11,11,12,12,13,13,14,14,15,15,16,16,17,17,18,18,20,20,21,21,22,22,24,24,25,25,26,26,27,27,28,28,29,29,30,30],"right_children":[2,4,6,8,10,12,14,16,18,20,22,24,26,28,30,32,34,36,38,-1,40,42,44,-1,46,48,50,52,54,56,58,-1,-1,-1,-1,-1,-1,-1,-1,-1,-1,-1,-1,-1,-1,-1,-1,-1,-1,-1,-1,-1,-1,-1,-1,-1,-1,-1,-1],"split_conditions":[2.848E0,-1.2279446E-2,2.971E0,1.274E1,-7.890792E0,-2.8565481E1,9.168544E-3,-1.2692566E-3,-1.0509364E1,9.044E1,-6.3222504E0,2.545E1,3.6787236E-4,7.340768E-3,6.811102E1,6.799984E-2,5.01815E1,-2.3675207E1,5.2610455E1,-5.712963E-2,3.459853E1,-1.0091256E-3,-5.202447E0,4.654863E-2,2.697E1,1.6182596E-3,2.327E1,1.776621E-2,1.1325008E0,1.0467649E-2,2.115E1,3.9392475E-2,-1.7120896E-2,-6.5630585E-2,-1.29508E-2,-1.5475681E-3,5.11553E-2,-6.079629E-2,4.0470106E-3,8.00145E-3,3.5690658E-2,-6.887383E-2,2.495383E-2,4.997589E-2,3.708816E-4,-3.5082154E-2,2.2086157E-2,1.1724017E-2,-3.918399E-2,-5.9457093E-2,1.1595136E-2,-1.6897944E-3,2.9914616E-2,5.183905E-2,-1.4443176E-2,-6.691547E-2,-1.9359795E-2,2.8582547E-2,-2.1854816E-2],"split_indices":[6,2,6,8,3,3,1,5,3,4,3,8,1,1,0,7,0,3,0,0,0,2,3,0,8,5,8,2,9,2,8,0,0,0,0,0,0,0,0,0,0,0,0,0,0,0,0,0,0,0,0,0,0,0,0,0,0,0,0],"split_type":[0,0,0,0,0,0,0,0,0,0,0,0,0,0,0,0,0,0,0,0,0,0,0,0,0,0,0,0,0,0,0,0,0,0,0,0,0,0,0,0,0,0,0,0,0,0,0,0,0,0,0,0,0,0,0,0,0,0,0],"sum_hessian":[4.8724384E2,3.1748074E2,1.6976308E2,4.9100765E1,2.6837997E2,3.050096E1,1.3926212E2,1.1376768E1,3.7723995E1,5.820236E1,2.1017763E2,5.2579727E0,2.5242987E1,1.2155856E2,1.7703547E1,3.4640775E0,7.91269E0,2.5181475E1,1.2542521E1,2.489374E0,5.5712986E1,8.12485E0,2.0205278E2,2.4152522E0,2.8427203E0,1.4280393E1,1.0962594E1,1.1543667E2,6.121894E0,1.1515112E1,6.188434E0,1.4889821E0,1.9750954E0,6.1856422E0,1.7270479E0,1.8397017E1,6.784459E0,5.2100945E0,7.332427E0,2.5915813E1,2.9797173E1,4.6897774E0,3.435073E0,5.2772365E0,1.9677554E2,1.1538308E0,1.6888895E0,5.9481115E0,8.332281E0,9.239329E0,1.7232648E0,1.080795E2,7.3571696E0,4.8802314E0,1.2416624E0,4.8897715E0,6.6253405E0,4.711009E0,1.4774252E0],"tree_param":{"num_deleted":"0","num_feature":"10","num_nodes":"59","size_leaf_vector":"1"}},{"base_weights":[-1.3257335E-3,-6.876725E-3,4.2558208E-2,4.601034E-3,-7.052192E-1,1.0728758E-2,-4.913897E-2,-9.9702877E-1,1.1001418E-2,-3.2941182E-3,5.5788624E-1,-8.952196E-3,-6.354156E-2,-8.8590756E-4,2.3432542E-2,5.5141892E-2,1.0676566E-2],"categories":[],"categories_nodes":[],"categories_segments":[],"categories_sizes":[],"default_left":[0,0,0,0,0,0,0,0,0,0,0,0,0,0,0,0,0],"id":25,"left_children":[1,3,-1,5,7,9,-1,11,-1,13,15,-1,-1,-1,-1,-1,-1],"loss_changes":[2.3139806E0,3.8954427E0,0E0,2.9070563E0,2.3411229E0,3.6599429E0,0E0,1.1509857E0,0E0,3.179495E0,2.0012698E0,0E0,0E0,0E0,0E0,0E0,0E0],"parents":[2147483647,0,0,1,1,3,3,4,4,5,5,7,7,9,9,10,10],"right_children":[2,4,-1,6,8,10,-1,12,-1,14,16,-1,-1,-1,-1,-1,-1],"split_conditions":[3.1317614E-2,1.029E1,4.2558208E-2,5.2110814E-2,6.324154E1,7.781785E1,-4.913897E-2,-1.6452063E-2,1.1001418E-2,5.566E0,4.516385E-3,-8.952196E-3,-6.354156E-2,-8.8590756E-4,2.3432542E-2,5.5141892E-2,1.0676566E-2],"split_indices":[5,9,0,2,0,3,0,2,0,9,1,0,0,0,0,0,0],"split_type":[0,0,0,0,0,0,0,0,0,0,0,0,0,0,0,0,0],"sum_hessian":[4.8675308E2,4.845896E2,2.1634736E0,4.7773114E2,6.858442E0,4.7576764E2,1.9634995E0,5.155038E0,1.703404E0,4.6484824E2,1.0919426E1,1.7075747E0,3.4474633E0,4.5199634E2,1.2851888E1,3.3752992E0,7.5441265E0],"tree_param":{"num_deleted":"0","num_feature":"10","num_nodes":"17","size_leaf_vector":"1"}},{"base_weights":[-1.2155736E-3,-2.059584E-1,2.1680564E-2,-7.479542E-1,-8.76691E-2,3.872798E-1,6.701984E-3,-4.9784098E-2,-1.0996326E0,-4.6556255E-1,6.692194E-2,-7.19673E-1,7.148572E-1,1.2117534E-2,-5.1028956E-2,3.085407E-2,-2.9219944E-2,-6.434818E-2,-1.5367894E-2,4.495474E-1,-8.045969E-1,6.37786E-2,-1.2781626E-1,-5.6046773E-2,9.319507E-3,2.5172567E-1,6.490688E-2,-1.799845E-3,4.4607428E-1,-6.4442866E-3,4.7766294E-2,1.2395176E-2,-4.9798023E-2,2.0443324E-2,-1.7893273E-2,-3.5661723E-2,2.8939767E-2,1.3110811E-3,-1.3228496E-2,-2.635375E-2,3.0734867E-2],"categories":[],"categories_nodes":[],"categories_segments":[],"categories_sizes":[],"default_left":[0,0,0,0,0,0,0,0,0,0,0,0,0,0,0,0,0,0,0,0,0,0,0,0,0,0,0,0,0,0,0,0,0,0,0,0,0,0,0,0,0],"id":26,"left_children":[1,3,5,7,9,11,13,15,17,19,21,23,25,27,-1,-1,-1,-1,-1,29,31,-1,33,-1,-1,35,-1,37,39,-1,-1,-1,-1,-1,-1,-1,-1,-1,-1,-1,-1],"loss_changes":[2.290556E0,3.085236E0,2.40429E0,2.0743856E0,2.4540017E0,6.7807093E0,2.3669753E0,1.7696476E0,4.532895E-1,4.136348E0,7.29648E0,1.8247879E0,3.4109273E0,2.5495422E0,0E0,0E0,0E0,0E0,0E0,1.2730267E0,2.1070924E0,0E0,3.4811532E0,0E0,0E0,3.2384982E0,0E0,3.0250494E0,2.4765387E0,0E0,0E0,0E0,0E0,0E0,0E0,0E0,0E0,0E0,0E0,0E0,0E0],"parents":[2147483647,0,0,1,1,2,2,3,3,4,4,5,5,6,6,7,7,8,8,9,9,10,10,11,11,12,12,13,13,19,19,20,20,22,22,25,25,27,27,28,28],"right_children":[2,4,6,8,10,12,14,16,18,20,22,24,26,28,-1,-1,-1,-1,-1,30,32,-1,34,-1,-1,36,-1,38,40,-1,-1,-1,-1,-1,-1,-1,-1,-1,-1,-1,-1],"split_conditions":[-9.899998E-2,3.9914185E1,-7.8999996E-2,-5.2620154E-3,1.732E0,-1.7040005E0,5.2110814E-2,7.1683843E-3,2.975E0,-1.1348297E-2,2.143E0,3.194758E-4,2.2576492E1,6.691404E1,-5.1028956E-2,3.085407E-2,-2.9219944E-2,-6.434818E-2,-1.5367894E-2,-1.7876681E-2,7.0289725E-1,6.37786E-2,-6.2296295E-4,-5.6046773E-2,9.319507E-3,-9.40001E-2,6.490688E-2,8.586502E-3,3.2267526E-3,-6.4442866E-3,4.7766294E-2,1.2395176E-2,-4.9798023E-2,2.0443324E-2,-1.7893273E-2,-3.5661723E-2,2.8939767E-2,1.3110811E-3,-1.3228496E-2,-2.635375E-2,3.0734867E-2],"split_indices":[7,0,7,5,6,9,2,2,6,5,6,5,3,3,0,0,0,0,0,5,3,0,1,0,0,7,0,1,2,0,0,0,0,0,0,0,0,0,0,0,0],"split_type":[0,0,0,0,0,0,0,0,0,0,0,0,0,0,0,0,0,0,0,0,0,0,0,0,0,0,0,0,0,0,0,0,0,0,0,0,0,0,0,0,0],"sum_hessian":[4.8666605E2,4.8145145E1,4.385209E2,7.6715207E0,4.0473625E1,1.628082E1,4.2224008E2,2.952208E0,4.7193127E0,1.1166312E1,2.9307312E1,3.4444265E0,1.2836393E1,4.2100885E2,1.2312413E0,1.2449871E0,1.707221E0,3.3118455E0,1.407467E0,2.9304845E0,8.235827E0,3.2966073E0,2.6010704E1,2.222855E0,1.2215713E0,7.953103E0,4.883291E0,4.0889117E2,1.2117653E1,1.7146733E0,1.2158113E0,1.2215946E0,7.014233E0,7.570996E0,1.8439709E1,1.7143983E0,6.2387047E0,3.7030276E2,3.858841E1,1.4756565E0,1.0641995E1],"tree_param":{"num_deleted":"0","num_feature":"10","num_nodes":"41","size_leaf_vector":"1"}},{"base_weights":[-1.2640806E-3,-6.613142E-3,4.1236904E-2,4.385741E-3,-6.7788506E-1,2.1105029E-2,-3.5193762E-1,-9.5923257E-1,1.0717062E-2,2.9684043E-1,-1.3309483E-3,-7.8226015E-2,-9.53155E-1,-8.803801E-3,-6.106018E-2,4.005924E-3,4.443464E-2,2.8917838E-3,-5.8105434E-3,-3.5620864E-2,2.1110445E-2,-6.715488E-2,5.363732E-3],"categories":[],"categories_nodes":[],"categories_segments":[],"categories_sizes":[],"default_left":[0,0,0,0,0,0,0,0,0,0,0,0,0,0,0,0,0,0,0,0,0,0,0],"id":27,"left_children":[1,3,-1,5,7,9,11,13,-1,15,17,19,21,-1,-1,-1,-1,-1,-1,-1,-1,-1,-1],"loss_changes":[2.1587658E0,3.585427E0,0E0,2.8573978E0,2.1707733E0,2.8330736E0,3.4630225E0,1.043539E0,0E0,4.348689E0,2.891597E0,5.334762E0,2.8880048E0,0E0,0E0,0E0,0E0,0E0,0E0,0E0,0E0,0E0,0E0],"parents":[2147483647,0,0,1,1,3,3,4,4,5,5,6,6,7,7,9,9,10,10,11,11,12,12],"right_children":[2,4,-1,6,8,10,12,14,-1,16,18,20,22,-1,-1,-1,-1,-1,-1,-1,-1,-1,-1],"split_conditions":[3.1317614E-2,1.029E1,4.1236904E-2,1.4366935E-2,6.324154E1,-3.1782091E1,2.4001051E-3,-1.6452063E-2,1.0717062E-2,3.4132835E1,2.848E0,3.4132835E1,7.290926E1,-8.803801E-3,-6.106018E-2,4.005924E-3,4.443464E-2,2.8917838E-3,-5.8105434E-3,-3.5620864E-2,2.1110445E-2,-6.715488E-2,5.363732E-3],"split_indices":[5,9,0,5,0,3,2,2,0,0,6,0,3,0,0,0,0,0,0,0,0,0,0],"split_type":[0,0,0,0,0,0,0,0,0,0,0,0,0,0,0,0,0,0,0,0,0,0,0],"sum_hessian":[4.86358E2,4.8421432E2,2.1437025E0,4.7738574E2,6.8285646E0,4.5688855E2,2.0497206E1,5.1344185E0,1.6941465E0,3.3458397E1,4.2343015E2,1.4861457E1,5.6357484E0,1.7061228E0,3.4282956E0,2.5321608E1,8.136788E0,2.7981403E2,1.4361612E2,6.367921E0,8.493536E0,3.9256456E0,1.7101029E0],"tree_param":{"num_deleted":"0","num_feature":"10","num_nodes":"23","size_leaf_vector":"1"}},{"base_weights":[-1.2985457E-3,7.483039E-2,-5.68978E-2,-1.0953083E-2,2.4069425E-1,-7.009097E-2,8.0895483E-1,4.2121065E-1,-7.615621E-2,5.190913E-1,-4.2576254E-3,-3.239182E-1,-3.1045234E-2,5.2483987E-2,9.798648E-3,1.3758953E-2,8.9482707E-1,-5.6714267E-3,-5.10751E-1,7.703907E-1,7.616378E-2,-3.793227E-1,2.3525527E-1,-4.1846836E-1,6.6988355E-1,2.9573986E-1,-6.55034E-2,-3.350225E-2,2.5078317E-2,6.639712E-2,3.3559583E-3,9.024749E-3,-1.2869722E-2,2.0374577E-2,-3.7847392E-2,-9.509923E-3,4.6821944E-2,-4.3078493E-2,2.4839686E-2,-3.3287082E-2,1.48803E-2,6.171879E-2,2.7291444E-3,-7.7072904E-3,-3.989291E-2,4.6745893E-3,4.611328E-2,-9.879595E-3,4.503387E-2,-1.5945222E-2,4.8423395E-4],"categories":[],"categories_nodes":[],"categories_segments":[],"categories_sizes":[],"default_left":[0,0,0,0,0,0,0,0,0,0,0,0,0,0,0,0,0,0,0,0,0,0,0,0,0,0,0,0,0,0,0,0,0,0,0,0,0,0,0,0,0,0,0,0,0,0,0,0,0,0,0],"id":28,"left_children":[1,3,5,7,9,11,13,15,17,19,21,23,25,-1,-1,27,29,31,33,35,37,39,41,43,45,47,49,-1,-1,-1,-1,-1,-1,-1,-1,-1,-1,-1,-1,-1,-1,-1,-1,-1,-1,-1,-1,-1,-1,-1,-1],"loss_changes":[2.0663683E0,2.9345431E0,3.279496E0,3.8861399E0,4.795356E0,2.753191E0,4.308641E-1,3.4773977E0,3.6634803E0,3.6039772E0,3.5371382E0,3.7630894E0,2.7527804E0,0E0,0E0,3.917374E0,2.903287E0,4.920057E0,4.0819173E0,3.5093012E0,5.5640435E0,3.1724644E0,4.2722683E0,3.3327408E0,4.3812418E-1,7.1423044E0,4.2024775E0,0E0,0E0,0E0,0E0,0E0,0E0,0E0,0E0,0E0,0E0,0E0,0E0,0E0,0E0,0E0,0E0,0E0,0E0,0E0,0E0,0E0,0E0,0E0,0E0],"parents":[2147483647,0,0,1,1,2,2,3,3,4,4,5,5,6,6,7,7,8,8,9,9,10,10,11,11,12,12,15,15,16,16,17,17,18,18,19,19,20,20,21,21,22,22,23,23,24,24,25,25,26,26],"right_children":[2,4,6,8,10,12,14,16,18,20,22,24,26,-1,-1,28,30,32,34,36,38,40,42,44,46,48,50,-1,-1,-1,-1,-1,-1,-1,-1,-1,-1,-1,-1,-1,-1,-1,-1,-1,-1,-1,-1,-1,-1,-1,-1],"split_conditions":[-6.74433E-4,-6.0574675E-4,4.662E0,-2.7359998E0,5.227754E-3,4.7143913E-4,1.926E1,4.400003E-2,-2.7469713E-3,1.8477843E-3,8.873005E-3,4.137E0,1.142E1,5.2483987E-2,9.798648E-3,-4.3134995E0,-9.738484E0,9.872E1,1.262E1,-6.399989E-2,-6.3318317E-3,3.5999998E-1,9.913413E-3,9.827E1,4.164471E1,2.346E0,1.348E1,-3.350225E-2,2.5078317E-2,6.639712E-2,3.3559583E-3,9.024749E-3,-1.2869722E-2,2.0374577E-2,-3.7847392E-2,-9.509923E-3,4.6821944E-2,-4.3078493E-2,2.4839686E-2,-3.3287082E-2,1.48803E-2,6.171879E-2,2.7291444E-3,-7.7072904E-3,-3.989291E-2,4.6745893E-3,4.611328E-2,-9.879595E-3,4.503387E-2,-1.5945222E-2,4.8423395E-4],"split_indices":[1,2,6,9,2,1,8,7,2,5,2,6,8,0,0,9,3,4,8,7,1,9,2,4,0,6,8,0,0,0,0,0,0,0,0,0,0,0,0,0,0,0,0,0,0,0,0,0,0,0,0],"split_type":[0,0,0,0,0,0,0,0,0,0,0,0,0,0,0,0,0,0,0,0,0,0,0,0,0,0,0,0,0,0,0,0,0,0,0,0,0,0,0,0,0,0,0,0,0,0,0,0,0,0,0],"sum_hessian":[4.8618427E2,2.0506052E2,2.8112375E2,1.357735E2,6.928702E1,2.7780975E2,3.313993E0,1.7083666E1,1.18689835E2,3.1905758E1,3.7381256E1,3.606483E1,2.417449E2,1.8679947E0,1.4459982E0,9.736454E0,7.347211E0,1.0299813E2,1.5691708E1,1.9884676E1,1.2021083E1,1.4340708E1,2.3040548E1,3.3460342E1,2.604491E0,2.233621E1,2.194087E2,3.8982863E0,5.8381677E0,4.4265594E0,2.9206512E0,5.9371677E1,4.3626453E1,3.1791725E0,1.2512535E1,2.9092448E0,1.697543E1,3.3978293E0,8.623254E0,1.0088594E1,4.252113E0,2.635282E0,2.0405268E1,2.0549625E1,1.2910716E1,1.2104635E0,1.3940275E0,1.2673902E1,9.662309E0,4.9463608E1,1.699451E2],"tree_param":{"num_deleted":"0","num_feature":"10","num_nodes":"51","size_leaf_vector":"1"}},{"base_weights":[-8.2127796E-4,-6.0070613E-3,4.0148344E-2,4.5750435E-3,-6.529291E-1,2.0595374E-2,-3.3690256E-1,1.1201296E-2,-9.34491E-1,2.820205E-1,-2.9667034E-3,-7.5356424E-2,-9.126855E-1,-1.0998862E0,-7.2293817E-3,2.683281E-2,-3.0761028E-2,-2.4007293E-3,1.1990191E-2,-3.3985008E-2,2.0207042E-2,-6.43986E-2,5.1803864E-3,-1.0811298E-2,-6.654265E-2],"categories":[],"categories_nodes":[],"categories_segments":[],"categories_sizes":[],"default_left":[0,0,0,0,0,0,0,0,0,0,0,0,0,0,0,0,0,0,0,0,0,0,0,0,0],"id":29,"left_children":[1,3,-1,5,7,9,11,-1,13,15,17,19,21,23,-1,-1,-1,-1,-1,-1,-1,-1,-1,-1,-1],"loss_changes":[2.0333664E0,3.3200207E0,0E0,2.6204038E0,2.1365993E0,2.8174586E0,3.163847E0,0E0,6.3812923E-1,8.969965E0,4.609666E0,4.8679647E0,2.6564212E0,7.110605E-1,0E0,0E0,0E0,0E0,0E0,0E0,0E0,0E0,0E0,0E0,0E0],"parents":[2147483647,0,0,1,1,3,3,4,4,5,5,6,6,8,8,9,9,10,10,11,11,12,12,13,13],"right_children":[2,4,-1,6,8,10,12,-1,14,16,18,20,22,24,-1,-1,-1,-1,-1,-1,-1,-1,-1,-1,-1],"split_conditions":[3.1317614E-2,1.029E1,4.0148344E-2,1.4366935E-2,-2.019999E-1,2.8319418E1,2.4001051E-3,1.1201296E-2,6.1843246E1,2.1430006E0,2.422E1,3.4132835E1,7.290926E1,9.05E1,-7.2293817E-3,2.683281E-2,-3.0761028E-2,-2.4007293E-3,1.1990191E-2,-3.3985008E-2,2.0207042E-2,-6.43986E-2,5.1803864E-3,-1.0811298E-2,-6.654265E-2],"split_indices":[5,9,0,5,7,0,2,0,0,9,8,0,3,4,0,0,0,0,0,0,0,0,0,0,0],"split_type":[0,0,0,0,0,0,0,0,0,0,0,0,0,0,0,0,0,0,0,0,0,0,0,0,0],"sum_hessian":[4.8566287E2,4.835358E2,2.1270912E0,4.7673053E2,6.8052487E0,4.5626468E2,2.0465849E1,1.7035868E0,5.1016617E0,3.6815987E1,4.194487E2,1.4850823E1,5.6150255E0,3.8938997E0,1.207762E0,2.8990429E1,7.8255596E0,3.5447537E2,6.497333E1,6.3853703E0,8.465453E0,3.905514E0,1.7095114E0,1.2080756E0,2.6858242E0],"tree_param":{"num_deleted":"0","num_feature":"10","num_nodes":"25","size_leaf_vector":"1"}},{"base_weights":[-9.854296E-4,-2.1765237E-1,1.743132E-2,-3.7739363E-1,1.1448431E-1,7.7487975E-2,-6.125406E-2,6.548186E-2,-7.594976E-1,4.7093328E-2,